digraph Tree {
node [shape=box, style="rounded", color="black", fontname=helvetica] ;
edge [fontname=helvetica] ;
0 [label="OverallQual <= 1.0\nmse = 6235326079.9\nsamples = 744\nvalue = 181653.2"] ;
1 [label="OverallQual <= 0.3\nmse = 2622593477.4\nsamples = 630\nvalue = 159920.5"] ;
0 -> 1 [labeldistance=2.5, labelangle=45, headlabel="True"] ;
2 [label="GrLivArea <= -0.2\nmse = 1463027859.5\nsamples = 458\nvalue = 140837.8"] ;
1 -> 2 ;
3 [label="YearBuilt <= -0.7\nmse = 904683323.6\nsamples = 286\nvalue = 125103.7"] ;
2 -> 3 ;
4 [label="1stFlrSF <= -1.5\nmse = 543954024.4\nsamples = 98\nvalue = 100804.1"] ;
3 -> 4 ;
5 [label="OverallQual <= -0.8\nmse = 301726996.8\nsamples = 6\nvalue = 60237.4"] ;
4 -> 5 ;
6 [label="TotalBsmtSF <= -1.6\nmse = 106756994.4\nsamples = 4\nvalue = 48730.1"] ;
5 -> 6 ;
7 [label="x9_2fmCon <= 0.5\nmse = 6250000.0\nsamples = 2\nvalue = 57500.0"] ;
6 -> 7 ;
8 [label="mse = 0.0\nsamples = 1\nvalue = 60000.0"] ;
7 -> 8 ;
9 [label="mse = 0.0\nsamples = 1\nvalue = 55000.0"] ;
7 -> 9 ;
10 [label="YrSold <= -0.2\nmse = 1489538.0\nsamples = 2\nvalue = 37037.0"] ;
6 -> 10 ;
11 [label="mse = 0.0\nsamples = 1\nvalue = 35311.0"] ;
10 -> 11 ;
12 [label="mse = 0.0\nsamples = 1\nvalue = 37900.0"] ;
10 -> 12 ;
13 [label="MoSold <= -0.5\nmse = 5671875.0\nsamples = 2\nvalue = 80375.0"] ;
5 -> 13 ;
14 [label="mse = 0.0\nsamples = 1\nvalue = 79000.0"] ;
13 -> 14 ;
15 [label="mse = 0.0\nsamples = 1\nvalue = 84500.0"] ;
13 -> 15 ;
16 [label="GrLivArea <= -0.6\nmse = 429720351.6\nsamples = 92\nvalue = 103839.7"] ;
4 -> 16 ;
17 [label="OverallCond <= -1.0\nmse = 414463357.3\nsamples = 64\nvalue = 97374.6"] ;
16 -> 17 ;
18 [label="x11_Hip <= 0.5\nmse = 124251400.0\nsamples = 11\nvalue = 77260.0"] ;
17 -> 18 ;
19 [label="EnclosedPorch <= 1.1\nmse = 67105709.9\nsamples = 9\nvalue = 74761.1"] ;
18 -> 19 ;
20 [label="x20_Typ <= 0.5\nmse = 15230769.2\nsamples = 6\nvalue = 79000.0"] ;
19 -> 20 ;
21 [label="mse = 0.0\nsamples = 1\nvalue = 67000.0"] ;
20 -> 21 ;
22 [label="GrLivArea <= -1.4\nmse = 3500000.0\nsamples = 5\nvalue = 80000.0"] ;
20 -> 22 ;
23 [label="mse = 0.0\nsamples = 1\nvalue = 76000.0"] ;
22 -> 23 ;
24 [label="MSSubClass <= 1.5\nmse = 360000.0\nsamples = 4\nvalue = 80800.0"] ;
22 -> 24 ;
25 [label="OpenPorchSF <= -0.6\nmse = 122449.0\nsamples = 3\nvalue = 81142.9"] ;
24 -> 25 ;
26 [label="mse = 0.0\nsamples = 1\nvalue = 82000.0"] ;
25 -> 26 ;
27 [label="mse = 0.0\nsamples = 2\nvalue = 81000.0"] ;
25 -> 27 ;
28 [label="mse = 0.0\nsamples = 1\nvalue = 80000.0"] ;
24 -> 28 ;
29 [label="x22_COD <= 0.5\nmse = 33798400.0\nsamples = 3\nvalue = 63740.0"] ;
19 -> 29 ;
30 [label="BsmtFullBath <= 0.2\nmse = 3062500.0\nsamples = 2\nvalue = 56750.0"] ;
29 -> 30 ;
31 [label="mse = 0.0\nsamples = 1\nvalue = 55000.0"] ;
30 -> 31 ;
32 [label="mse = 0.0\nsamples = 1\nvalue = 58500.0"] ;
30 -> 32 ;
33 [label="mse = 0.0\nsamples = 1\nvalue = 68400.0"] ;
29 -> 33 ;
34 [label="x19_Fa <= 0.5\nmse = 76562500.0\nsamples = 2\nvalue = 99750.0"] ;
18 -> 34 ;
35 [label="mse = 0.0\nsamples = 1\nvalue = 91000.0"] ;
34 -> 35 ;
36 [label="mse = 0.0\nsamples = 1\nvalue = 108500.0"] ;
34 -> 36 ;
37 [label="TotalBsmtSF <= -0.6\nmse = 361553135.6\nsamples = 53\nvalue = 102341.2"] ;
17 -> 37 ;
38 [label="OpenPorchSF <= 4.6\nmse = 288101751.5\nsamples = 33\nvalue = 94622.6"] ;
37 -> 38 ;
39 [label="LotArea <= -0.3\nmse = 223730898.7\nsamples = 32\nvalue = 95771.2"] ;
38 -> 39 ;
40 [label="OverallCond <= 0.8\nmse = 120609524.8\nsamples = 16\nvalue = 87804.5"] ;
39 -> 40 ;
41 [label="TotalBsmtSF <= -0.9\nmse = 39689467.5\nsamples = 9\nvalue = 81876.9"] ;
40 -> 41 ;
42 [label="x7_Norm <= 0.5\nmse = 12938888.9\nsamples = 5\nvalue = 76233.3"] ;
41 -> 42 ;
43 [label="x21_Y <= 0.5\nmse = 55555.6\nsamples = 2\nvalue = 72666.7"] ;
42 -> 43 ;
44 [label="mse = 0.0\nsamples = 1\nvalue = 73000.0"] ;
43 -> 44 ;
45 [label="mse = 0.0\nsamples = 1\nvalue = 72500.0"] ;
43 -> 45 ;
46 [label="EnclosedPorch <= 2.2\nmse = 380000.0\nsamples = 3\nvalue = 79800.0"] ;
42 -> 46 ;
47 [label="x10_1Story <= 0.5\nmse = 90000.0\nsamples = 2\nvalue = 80200.0"] ;
46 -> 47 ;
48 [label="mse = 0.0\nsamples = 1\nvalue = 80500.0"] ;
47 -> 48 ;
49 [label="mse = 0.0\nsamples = 1\nvalue = 79900.0"] ;
47 -> 49 ;
50 [label="mse = 0.0\nsamples = 1\nvalue = 79000.0"] ;
46 -> 50 ;
51 [label="LotArea <= -0.5\nmse = 11918367.3\nsamples = 4\nvalue = 86714.3"] ;
41 -> 51 ;
52 [label="mse = 0.0\nsamples = 1\nvalue = 80000.0"] ;
51 -> 52 ;
53 [label="YrSold <= -0.2\nmse = 5138888.9\nsamples = 3\nvalue = 87833.3"] ;
51 -> 53 ;
54 [label="x23_Normal <= 0.5\nmse = 187500.0\nsamples = 2\nvalue = 86250.0"] ;
53 -> 54 ;
55 [label="mse = 0.0\nsamples = 1\nvalue = 86000.0"] ;
54 -> 55 ;
56 [label="mse = 0.0\nsamples = 1\nvalue = 87000.0"] ;
54 -> 56 ;
57 [label="mse = 0.0\nsamples = 1\nvalue = 91000.0"] ;
53 -> 57 ;
58 [label="YearRemodAdd <= 0.7\nmse = 113431111.1\nsamples = 7\nvalue = 96366.7"] ;
40 -> 58 ;
59 [label="x5_Inside <= 0.5\nmse = 49066093.8\nsamples = 6\nvalue = 93412.5"] ;
58 -> 59 ;
60 [label="mse = 0.0\nsamples = 1\nvalue = 105000.0"] ;
59 -> 60 ;
61 [label="BsmtFinSF1 <= -0.9\nmse = 5745833.3\nsamples = 5\nvalue = 89550.0"] ;
59 -> 61 ;
62 [label="x21_N <= 0.5\nmse = 1822500.0\nsamples = 2\nvalue = 92650.0"] ;
61 -> 62 ;
63 [label="mse = 0.0\nsamples = 1\nvalue = 91300.0"] ;
62 -> 63 ;
64 [label="mse = 0.0\nsamples = 1\nvalue = 94000.0"] ;
62 -> 64 ;
65 [label="MSSubClass <= -0.5\nmse = 500000.0\nsamples = 3\nvalue = 88000.0"] ;
61 -> 65 ;
66 [label="x15_CBlock <= 0.5\nmse = 222222.2\nsamples = 2\nvalue = 88333.3"] ;
65 -> 66 ;
67 [label="mse = 0.0\nsamples = 1\nvalue = 88000.0"] ;
66 -> 67 ;
68 [label="mse = 0.0\nsamples = 1\nvalue = 89000.0"] ;
66 -> 68 ;
69 [label="mse = 0.0\nsamples = 1\nvalue = 87000.0"] ;
65 -> 69 ;
70 [label="mse = 0.0\nsamples = 1\nvalue = 120000.0"] ;
58 -> 70 ;
71 [label="TotalBsmtSF <= -0.9\nmse = 218679822.2\nsamples = 16\nvalue = 101613.3"] ;
39 -> 71 ;
72 [label="GrLivArea <= -1.0\nmse = 110415723.1\nsamples = 10\nvalue = 95186.4"] ;
71 -> 72 ;
73 [label="TotalBsmtSF <= -1.1\nmse = 60640000.0\nsamples = 3\nvalue = 79900.0"] ;
72 -> 73 ;
74 [label="x17_Fa <= 0.5\nmse = 1687500.0\nsamples = 2\nvalue = 83750.0"] ;
73 -> 74 ;
75 [label="mse = 0.0\nsamples = 1\nvalue = 86000.0"] ;
74 -> 75 ;
76 [label="mse = 0.0\nsamples = 1\nvalue = 83000.0"] ;
74 -> 76 ;
77 [label="mse = 0.0\nsamples = 1\nvalue = 64500.0"] ;
73 -> 77 ;
78 [label="YrSold <= -1.0\nmse = 36114394.5\nsamples = 7\nvalue = 99682.4"] ;
72 -> 78 ;
79 [label="MoSold <= 0.1\nmse = 40000.0\nsamples = 2\nvalue = 109700.0"] ;
78 -> 79 ;
80 [label="mse = 0.0\nsamples = 1\nvalue = 109500.0"] ;
79 -> 80 ;
81 [label="mse = 0.0\nsamples = 1\nvalue = 109900.0"] ;
79 -> 81 ;
82 [label="1stFlrSF <= -0.3\nmse = 6835384.6\nsamples = 5\nvalue = 96600.0"] ;
78 -> 82 ;
83 [label="KitchenAbvGr <= 2.1\nmse = 3950617.3\nsamples = 3\nvalue = 95277.8"] ;
82 -> 83 ;
84 [label="x21_N <= 0.5\nmse = 527343.8\nsamples = 2\nvalue = 95937.5"] ;
83 -> 84 ;
85 [label="mse = 0.0\nsamples = 1\nvalue = 95000.0"] ;
84 -> 85 ;
86 [label="mse = 0.0\nsamples = 1\nvalue = 96500.0"] ;
84 -> 86 ;
87 [label="mse = 0.0\nsamples = 1\nvalue = 90000.0"] ;
83 -> 87 ;
88 [label="YearBuilt <= -1.8\nmse = 541875.0\nsamples = 2\nvalue = 99575.0"] ;
82 -> 88 ;
89 [label="mse = 0.0\nsamples = 1\nvalue = 100000.0"] ;
88 -> 89 ;
90 [label="mse = 0.0\nsamples = 1\nvalue = 98300.0"] ;
88 -> 90 ;
91 [label="OverallCond <= 1.7\nmse = 90438593.8\nsamples = 6\nvalue = 119287.5"] ;
71 -> 91 ;
92 [label="BedroomAbvGr <= -0.5\nmse = 36111875.0\nsamples = 3\nvalue = 127325.0"] ;
91 -> 92 ;
93 [label="mse = 0.0\nsamples = 1\nvalue = 137500.0"] ;
92 -> 93 ;
94 [label="1stFlrSF <= -1.2\nmse = 2135555.6\nsamples = 2\nvalue = 123933.3"] ;
92 -> 94 ;
95 [label="mse = 0.0\nsamples = 1\nvalue = 122900.0"] ;
94 -> 95 ;
96 [label="mse = 0.0\nsamples = 1\nvalue = 126000.0"] ;
94 -> 96 ;
97 [label="GarageCars <= -1.7\nmse = 15562500.0\nsamples = 3\nvalue = 111250.0"] ;
91 -> 97 ;
98 [label="mse = 0.0\nsamples = 1\nvalue = 118000.0"] ;
97 -> 98 ;
99 [label="TotalBsmtSF <= -0.8\nmse = 500000.0\nsamples = 2\nvalue = 109000.0"] ;
97 -> 99 ;
100 [label="mse = 0.0\nsamples = 1\nvalue = 108000.0"] ;
99 -> 100 ;
101 [label="mse = 0.0\nsamples = 1\nvalue = 109500.0"] ;
99 -> 101 ;
102 [label="mse = 0.0\nsamples = 1\nvalue = 34900.0"] ;
38 -> 102 ;
103 [label="YearBuilt <= -0.9\nmse = 174362376.1\nsamples = 20\nvalue = 116951.3"] ;
37 -> 103 ;
104 [label="x21_N <= 0.5\nmse = 62573717.6\nsamples = 13\nvalue = 110481.8"] ;
103 -> 104 ;
105 [label="GarageArea <= -1.4\nmse = 57438410.9\nsamples = 10\nvalue = 112303.8"] ;
104 -> 105 ;
106 [label="BsmtUnfSF <= 0.6\nmse = 6750000.0\nsamples = 2\nvalue = 103500.0"] ;
105 -> 106 ;
107 [label="mse = 0.0\nsamples = 1\nvalue = 108000.0"] ;
106 -> 107 ;
108 [label="mse = 0.0\nsamples = 1\nvalue = 102000.0"] ;
106 -> 108 ;
109 [label="TotRmsAbvGrd <= -1.9\nmse = 39887430.6\nsamples = 8\nvalue = 115238.3"] ;
105 -> 109 ;
110 [label="mse = 0.0\nsamples = 1\nvalue = 100000.0"] ;
109 -> 110 ;
111 [label="x23_Abnorml <= 0.5\nmse = 20484786.8\nsamples = 7\nvalue = 116623.6"] ;
109 -> 111 ;
112 [label="x15_BrkTil <= 0.5\nmse = 7024444.4\nsamples = 6\nvalue = 118433.3"] ;
111 -> 112 ;
113 [label="LotArea <= -0.3\nmse = 55555.6\nsamples = 2\nvalue = 114833.3"] ;
112 -> 113 ;
114 [label="mse = 0.0\nsamples = 1\nvalue = 114500.0"] ;
113 -> 114 ;
115 [label="mse = 0.0\nsamples = 1\nvalue = 115000.0"] ;
113 -> 115 ;
116 [label="OverallCond <= -0.1\nmse = 788888.9\nsamples = 4\nvalue = 120233.3"] ;
112 -> 116 ;
117 [label="mse = 0.0\nsamples = 1\nvalue = 118400.0"] ;
116 -> 117 ;
118 [label="x16_Grav <= 0.5\nmse = 140000.0\nsamples = 3\nvalue = 120600.0"] ;
116 -> 118 ;
119 [label="x5_Inside <= 0.5\nmse = 55555.6\nsamples = 2\nvalue = 120333.3"] ;
118 -> 119 ;
120 [label="mse = 0.0\nsamples = 1\nvalue = 120500.0"] ;
119 -> 120 ;
121 [label="mse = 0.0\nsamples = 1\nvalue = 120000.0"] ;
119 -> 121 ;
122 [label="mse = 0.0\nsamples = 1\nvalue = 121000.0"] ;
118 -> 122 ;
123 [label="mse = 0.0\nsamples = 1\nvalue = 108480.0"] ;
111 -> 123 ;
124 [label="TotalBsmtSF <= -0.5\nmse = 16724908.0\nsamples = 3\nvalue = 103194.0"] ;
104 -> 124 ;
125 [label="mse = 0.0\nsamples = 1\nvalue = 110000.0"] ;
124 -> 125 ;
126 [label="YrSold <= 0.5\nmse = 1712483.6\nsamples = 2\nvalue = 100925.3"] ;
124 -> 126 ;
127 [label="mse = 0.0\nsamples = 1\nvalue = 100000.0"] ;
126 -> 127 ;
128 [label="mse = 0.0\nsamples = 1\nvalue = 102776.0"] ;
126 -> 128 ;
129 [label="YearRemodAdd <= 0.9\nmse = 87609375.0\nsamples = 7\nvalue = 133125.0"] ;
103 -> 129 ;
130 [label="BsmtFinSF1 <= -0.3\nmse = 31250000.0\nsamples = 5\nvalue = 128500.0"] ;
129 -> 130 ;
131 [label="mse = 0.0\nsamples = 1\nvalue = 135000.0"] ;
130 -> 131 ;
132 [label="OpenPorchSF <= 0.2\nmse = 15187500.0\nsamples = 4\nvalue = 125250.0"] ;
130 -> 132 ;
133 [label="TotalBsmtSF <= 0.2\nmse = 2888888.9\nsamples = 3\nvalue = 127333.3"] ;
132 -> 133 ;
134 [label="BsmtFinSF1 <= -0.0\nmse = 250000.0\nsamples = 2\nvalue = 128500.0"] ;
133 -> 134 ;
135 [label="mse = 0.0\nsamples = 1\nvalue = 129000.0"] ;
134 -> 135 ;
136 [label="mse = 0.0\nsamples = 1\nvalue = 128000.0"] ;
134 -> 136 ;
137 [label="mse = 0.0\nsamples = 1\nvalue = 125000.0"] ;
133 -> 137 ;
138 [label="mse = 0.0\nsamples = 1\nvalue = 119000.0"] ;
132 -> 138 ;
139 [label="mse = 0.0\nsamples = 2\nvalue = 147000.0"] ;
129 -> 139 ;
140 [label="MSSubClass <= -0.4\nmse = 169946616.3\nsamples = 28\nvalue = 118034.8"] ;
16 -> 140 ;
141 [label="WoodDeckSF <= 0.3\nmse = 157792500.0\nsamples = 4\nvalue = 97350.0"] ;
140 -> 141 ;
142 [label="LotArea <= -0.5\nmse = 17180000.0\nsamples = 3\nvalue = 104300.0"] ;
141 -> 142 ;
143 [label="mse = 0.0\nsamples = 1\nvalue = 109900.0"] ;
142 -> 143 ;
144 [label="OpenPorchSF <= -0.5\nmse = 2250000.0\nsamples = 2\nvalue = 101500.0"] ;
142 -> 144 ;
145 [label="mse = 0.0\nsamples = 1\nvalue = 100000.0"] ;
144 -> 145 ;
146 [label="mse = 0.0\nsamples = 1\nvalue = 103000.0"] ;
144 -> 146 ;
147 [label="mse = 0.0\nsamples = 1\nvalue = 76500.0"] ;
141 -> 147 ;
148 [label="x5_FR2 <= 0.5\nmse = 126474739.2\nsamples = 24\nvalue = 120004.8"] ;
140 -> 148 ;
149 [label="OpenPorchSF <= 1.3\nmse = 99135657.3\nsamples = 23\nvalue = 119153.7"] ;
148 -> 149 ;
150 [label="x14_Gd <= 0.5\nmse = 74030886.4\nsamples = 21\nvalue = 120573.7"] ;
149 -> 150 ;
151 [label="YearBuilt <= -1.4\nmse = 51853399.7\nsamples = 18\nvalue = 118979.4"] ;
150 -> 151 ;
152 [label="OverallCond <= -0.1\nmse = 33580246.9\nsamples = 8\nvalue = 114944.4"] ;
151 -> 152 ;
153 [label="mse = 0.0\nsamples = 1\nvalue = 98000.0"] ;
152 -> 153 ;
154 [label="YrSold <= 1.3\nmse = 17673010.4\nsamples = 7\nvalue = 115941.2"] ;
152 -> 154 ;
155 [label="LotArea <= -0.1\nmse = 6222222.2\nsamples = 6\nvalue = 114666.7"] ;
154 -> 155 ;
156 [label="1stFlrSF <= -0.8\nmse = 1454545.5\nsamples = 4\nvalue = 116000.0"] ;
155 -> 156 ;
157 [label="x7_Artery <= 0.5\nmse = 234375.0\nsamples = 2\nvalue = 115375.0"] ;
156 -> 157 ;
158 [label="mse = 0.0\nsamples = 1\nvalue = 116000.0"] ;
157 -> 158 ;
159 [label="mse = 0.0\nsamples = 1\nvalue = 115000.0"] ;
157 -> 159 ;
160 [label="TotalBsmtSF <= -0.4\nmse = 888888.9\nsamples = 2\nvalue = 117666.7"] ;
156 -> 160 ;
161 [label="mse = 0.0\nsamples = 1\nvalue = 119000.0"] ;
160 -> 161 ;
162 [label="mse = 0.0\nsamples = 1\nvalue = 117000.0"] ;
160 -> 162 ;
163 [label="x5_Inside <= 0.5\nmse = 1000000.0\nsamples = 2\nvalue = 111000.0"] ;
155 -> 163 ;
164 [label="mse = 0.0\nsamples = 1\nvalue = 110000.0"] ;
163 -> 164 ;
165 [label="mse = 0.0\nsamples = 1\nvalue = 112000.0"] ;
163 -> 165 ;
166 [label="mse = 0.0\nsamples = 1\nvalue = 125500.0"] ;
154 -> 166 ;
167 [label="TotRmsAbvGrd <= -0.0\nmse = 33489023.4\nsamples = 10\nvalue = 123518.8"] ;
151 -> 167 ;
168 [label="GrLivArea <= -0.6\nmse = 19089722.2\nsamples = 8\nvalue = 125983.3"] ;
167 -> 168 ;
169 [label="x17_Ex <= 0.5\nmse = 5062500.0\nsamples = 2\nvalue = 132750.0"] ;
168 -> 169 ;
170 [label="mse = 0.0\nsamples = 1\nvalue = 135000.0"] ;
169 -> 170 ;
171 [label="mse = 0.0\nsamples = 1\nvalue = 130500.0"] ;
169 -> 171 ;
172 [label="GrLivArea <= -0.5\nmse = 10906100.0\nsamples = 6\nvalue = 124630.0"] ;
168 -> 172 ;
173 [label="OverallCond <= 0.4\nmse = 1267500.0\nsamples = 2\nvalue = 120950.0"] ;
172 -> 173 ;
174 [label="mse = 0.0\nsamples = 1\nvalue = 119000.0"] ;
173 -> 174 ;
175 [label="mse = 0.0\nsamples = 1\nvalue = 121600.0"] ;
173 -> 175 ;
176 [label="TotalBsmtSF <= -0.4\nmse = 2284722.2\nsamples = 4\nvalue = 127083.3"] ;
172 -> 176 ;
177 [label="EnclosedPorch <= 1.1\nmse = 700000.0\nsamples = 3\nvalue = 126500.0"] ;
176 -> 177 ;
178 [label="YearBuilt <= -1.0\nmse = 55555.6\nsamples = 2\nvalue = 127166.7"] ;
177 -> 178 ;
179 [label="mse = 0.0\nsamples = 1\nvalue = 127500.0"] ;
178 -> 179 ;
180 [label="mse = 0.0\nsamples = 1\nvalue = 127000.0"] ;
178 -> 180 ;
181 [label="mse = 0.0\nsamples = 1\nvalue = 125500.0"] ;
177 -> 181 ;
182 [label="mse = 0.0\nsamples = 1\nvalue = 130000.0"] ;
176 -> 182 ;
183 [label="x3_Lvl <= 0.5\nmse = 3796875.0\nsamples = 2\nvalue = 116125.0"] ;
167 -> 183 ;
184 [label="mse = 0.0\nsamples = 1\nvalue = 119500.0"] ;
183 -> 184 ;
185 [label="mse = 0.0\nsamples = 1\nvalue = 115000.0"] ;
183 -> 185 ;
186 [label="x10_2Story <= 0.5\nmse = 57296875.0\nsamples = 3\nvalue = 134125.0"] ;
150 -> 186 ;
187 [label="x0_RM <= 0.5\nmse = 2722222.2\nsamples = 2\nvalue = 129833.3"] ;
186 -> 187 ;
188 [label="mse = 0.0\nsamples = 1\nvalue = 127500.0"] ;
187 -> 188 ;
189 [label="mse = 0.0\nsamples = 1\nvalue = 131000.0"] ;
187 -> 189 ;
190 [label="mse = 0.0\nsamples = 1\nvalue = 147000.0"] ;
186 -> 190 ;
191 [label="LotArea <= -0.2\nmse = 68055555.6\nsamples = 2\nvalue = 101166.7"] ;
149 -> 191 ;
192 [label="mse = 0.0\nsamples = 1\nvalue = 89500.0"] ;
191 -> 192 ;
193 [label="mse = 0.0\nsamples = 1\nvalue = 107000.0"] ;
191 -> 193 ;
194 [label="mse = 0.0\nsamples = 1\nvalue = 154900.0"] ;
148 -> 194 ;
195 [label="1stFlrSF <= -0.5\nmse = 602592720.8\nsamples = 188\nvalue = 138388.6"] ;
3 -> 195 ;
196 [label="TotalBsmtSF <= -1.2\nmse = 301041682.7\nsamples = 77\nvalue = 123370.6"] ;
195 -> 196 ;
197 [label="OverallQual <= -1.2\nmse = 231966942.1\nsamples = 7\nvalue = 93318.2"] ;
196 -> 197 ;
198 [label="LotArea <= -0.8\nmse = 17340000.0\nsamples = 2\nvalue = 78400.0"] ;
197 -> 198 ;
199 [label="mse = 0.0\nsamples = 1\nvalue = 83500.0"] ;
198 -> 199 ;
200 [label="mse = 0.0\nsamples = 1\nvalue = 75000.0"] ;
198 -> 200 ;
201 [label="MoSold <= 0.8\nmse = 70812500.0\nsamples = 5\nvalue = 105750.0"] ;
197 -> 201 ;
202 [label="YrSold <= 1.3\nmse = 19500000.0\nsamples = 3\nvalue = 113500.0"] ;
201 -> 202 ;
203 [label="x9_TwnhsE <= 0.5\nmse = 2250000.0\nsamples = 2\nvalue = 116500.0"] ;
202 -> 203 ;
204 [label="mse = 0.0\nsamples = 1\nvalue = 118000.0"] ;
203 -> 204 ;
205 [label="mse = 0.0\nsamples = 1\nvalue = 115000.0"] ;
203 -> 205 ;
206 [label="mse = 0.0\nsamples = 1\nvalue = 107500.0"] ;
202 -> 206 ;
207 [label="TotRmsAbvGrd <= -1.3\nmse = 2000000.0\nsamples = 2\nvalue = 98000.0"] ;
201 -> 207 ;
208 [label="mse = 0.0\nsamples = 1\nvalue = 97000.0"] ;
207 -> 208 ;
209 [label="mse = 0.0\nsamples = 1\nvalue = 100000.0"] ;
207 -> 209 ;
210 [label="GarageArea <= -0.9\nmse = 200588999.7\nsamples = 70\nvalue = 126611.5"] ;
196 -> 210 ;
211 [label="OverallCond <= -1.0\nmse = 164178858.5\nsamples = 20\nvalue = 114489.7"] ;
210 -> 211 ;
212 [label="mse = 0.0\nsamples = 1\nvalue = 88000.0"] ;
211 -> 212 ;
213 [label="BsmtUnfSF <= -0.2\nmse = 120512126.2\nsamples = 19\nvalue = 116451.9"] ;
211 -> 213 ;
214 [label="BsmtFinSF2 <= 0.1\nmse = 53900277.0\nsamples = 14\nvalue = 121815.8"] ;
213 -> 214 ;
215 [label="BsmtHalfBath <= 1.9\nmse = 28209960.9\nsamples = 11\nvalue = 119843.8"] ;
214 -> 215 ;
216 [label="x17_TA <= 0.5\nmse = 12976331.4\nsamples = 9\nvalue = 117846.2"] ;
215 -> 216 ;
217 [label="LotArea <= -0.2\nmse = 8571428.6\nsamples = 5\nvalue = 115500.0"] ;
216 -> 217 ;
218 [label="YearBuilt <= -0.5\nmse = 1562500.0\nsamples = 2\nvalue = 117750.0"] ;
217 -> 218 ;
219 [label="mse = 0.0\nsamples = 1\nvalue = 119000.0"] ;
218 -> 219 ;
220 [label="mse = 0.0\nsamples = 1\nvalue = 116500.0"] ;
218 -> 220 ;
221 [label="GarageArea <= -1.0\nmse = 2166666.7\nsamples = 3\nvalue = 112500.0"] ;
217 -> 221 ;
222 [label="TotalBsmtSF <= -0.5\nmse = 250000.0\nsamples = 2\nvalue = 111500.0"] ;
221 -> 222 ;
223 [label="mse = 0.0\nsamples = 1\nvalue = 112000.0"] ;
222 -> 223 ;
224 [label="mse = 0.0\nsamples = 1\nvalue = 111000.0"] ;
222 -> 224 ;
225 [label="mse = 0.0\nsamples = 1\nvalue = 114500.0"] ;
221 -> 225 ;
226 [label="MSSubClass <= -0.0\nmse = 4201388.9\nsamples = 4\nvalue = 120583.3"] ;
216 -> 226 ;
227 [label="x5_Corner <= 0.5\nmse = 1562500.0\nsamples = 2\nvalue = 123250.0"] ;
226 -> 227 ;
228 [label="mse = 0.0\nsamples = 1\nvalue = 122000.0"] ;
227 -> 228 ;
229 [label="mse = 0.0\nsamples = 1\nvalue = 124500.0"] ;
227 -> 229 ;
230 [label="GrLivArea <= -0.9\nmse = 187500.0\nsamples = 2\nvalue = 119250.0"] ;
226 -> 230 ;
231 [label="mse = 0.0\nsamples = 1\nvalue = 118500.0"] ;
230 -> 231 ;
232 [label="mse = 0.0\nsamples = 1\nvalue = 119500.0"] ;
230 -> 232 ;
233 [label="x12_Tar&Grv <= 0.5\nmse = 2000000.0\nsamples = 2\nvalue = 128500.0"] ;
215 -> 233 ;
234 [label="mse = 0.0\nsamples = 1\nvalue = 130500.0"] ;
233 -> 234 ;
235 [label="mse = 0.0\nsamples = 1\nvalue = 127500.0"] ;
233 -> 235 ;
236 [label="BsmtFullBath <= 0.2\nmse = 59555555.6\nsamples = 3\nvalue = 132333.3"] ;
214 -> 236 ;
237 [label="mse = 0.0\nsamples = 1\nvalue = 143000.0"] ;
236 -> 237 ;
238 [label="EnclosedPorch <= 1.6\nmse = 4000000.0\nsamples = 2\nvalue = 127000.0"] ;
236 -> 238 ;
239 [label="mse = 0.0\nsamples = 1\nvalue = 125000.0"] ;
238 -> 239 ;
240 [label="mse = 0.0\nsamples = 1\nvalue = 129000.0"] ;
238 -> 240 ;
241 [label="YearBuilt <= 0.2\nmse = 48091093.8\nsamples = 5\nvalue = 103712.5"] ;
213 -> 241 ;
242 [label="YearBuilt <= -0.3\nmse = 7398400.0\nsamples = 3\nvalue = 108640.0"] ;
241 -> 242 ;
243 [label="mse = 0.0\nsamples = 1\nvalue = 103200.0"] ;
242 -> 243 ;
244 [label="mse = 0.0\nsamples = 2\nvalue = 110000.0"] ;
242 -> 244 ;
245 [label="Fireplaces <= -0.2\nmse = 8000000.0\nsamples = 2\nvalue = 95500.0"] ;
241 -> 245 ;
246 [label="mse = 0.0\nsamples = 1\nvalue = 93500.0"] ;
245 -> 246 ;
247 [label="mse = 0.0\nsamples = 1\nvalue = 99500.0"] ;
245 -> 247 ;
248 [label="BsmtUnfSF <= -0.3\nmse = 133490526.6\nsamples = 50\nvalue = 131427.1"] ;
210 -> 248 ;
249 [label="BsmtFullBath <= 0.2\nmse = 78710098.0\nsamples = 40\nvalue = 134610.5"] ;
248 -> 249 ;
250 [label="WoodDeckSF <= 1.0\nmse = 77694707.0\nsamples = 15\nvalue = 128891.3"] ;
249 -> 250 ;
251 [label="BsmtUnfSF <= -0.5\nmse = 24074829.9\nsamples = 13\nvalue = 126642.9"] ;
250 -> 251 ;
252 [label="BsmtFinSF2 <= 0.5\nmse = 10645833.3\nsamples = 8\nvalue = 123250.0"] ;
251 -> 252 ;
253 [label="YearBuilt <= 0.1\nmse = 3500000.0\nsamples = 6\nvalue = 124833.3"] ;
252 -> 253 ;
254 [label="x17_Ex <= 0.5\nmse = 1284722.2\nsamples = 4\nvalue = 125916.7"] ;
253 -> 254 ;
255 [label="MoSold <= 0.1\nmse = 46875.0\nsamples = 3\nvalue = 125125.0"] ;
254 -> 255 ;
256 [label="mse = 0.0\nsamples = 2\nvalue = 125000.0"] ;
255 -> 256 ;
257 [label="mse = 0.0\nsamples = 1\nvalue = 125500.0"] ;
255 -> 257 ;
258 [label="mse = 0.0\nsamples = 1\nvalue = 127500.0"] ;
254 -> 258 ;
259 [label="OverallQual <= -0.4\nmse = 888888.9\nsamples = 2\nvalue = 122666.7"] ;
253 -> 259 ;
260 [label="mse = 0.0\nsamples = 1\nvalue = 122000.0"] ;
259 -> 260 ;
261 [label="mse = 0.0\nsamples = 1\nvalue = 124000.0"] ;
259 -> 261 ;
262 [label="WoodDeckSF <= -0.4\nmse = 2000000.0\nsamples = 2\nvalue = 118500.0"] ;
252 -> 262 ;
263 [label="mse = 0.0\nsamples = 1\nvalue = 117500.0"] ;
262 -> 263 ;
264 [label="mse = 0.0\nsamples = 1\nvalue = 120500.0"] ;
262 -> 264 ;
265 [label="GarageArea <= -0.0\nmse = 6166666.7\nsamples = 5\nvalue = 131166.7"] ;
251 -> 265 ;
266 [label="Fireplaces <= -0.2\nmse = 240000.0\nsamples = 3\nvalue = 129100.0"] ;
265 -> 266 ;
267 [label="mse = 0.0\nsamples = 1\nvalue = 130000.0"] ;
266 -> 267 ;
268 [label="BsmtFinSF1 <= 0.2\nmse = 46875.0\nsamples = 2\nvalue = 128875.0"] ;
266 -> 268 ;
269 [label="mse = 0.0\nsamples = 1\nvalue = 129000.0"] ;
268 -> 269 ;
270 [label="mse = 0.0\nsamples = 1\nvalue = 128500.0"] ;
268 -> 270 ;
271 [label="x17_Gd <= 0.5\nmse = 1562500.0\nsamples = 2\nvalue = 133750.0"] ;
265 -> 271 ;
272 [label="mse = 0.0\nsamples = 1\nvalue = 135000.0"] ;
271 -> 272 ;
273 [label="mse = 0.0\nsamples = 1\nvalue = 132500.0"] ;
271 -> 273 ;
274 [label="YrSold <= 1.3\nmse = 30250000.0\nsamples = 2\nvalue = 152500.0"] ;
250 -> 274 ;
275 [label="mse = 0.0\nsamples = 1\nvalue = 147000.0"] ;
274 -> 275 ;
276 [label="mse = 0.0\nsamples = 1\nvalue = 158000.0"] ;
274 -> 276 ;
277 [label="BsmtFinSF1 <= 0.5\nmse = 43757490.1\nsamples = 25\nvalue = 138368.9"] ;
249 -> 277 ;
278 [label="OverallCond <= 1.7\nmse = 48477490.2\nsamples = 11\nvalue = 134728.1"] ;
277 -> 278 ;
279 [label="WoodDeckSF <= 1.6\nmse = 16123347.1\nsamples = 8\nvalue = 130877.3"] ;
278 -> 279 ;
280 [label="YrSold <= -1.0\nmse = 4480625.0\nsamples = 7\nvalue = 131975.0"] ;
279 -> 280 ;
281 [label="mse = 0.0\nsamples = 1\nvalue = 137000.0"] ;
280 -> 281 ;
282 [label="WoodDeckSF <= -0.1\nmse = 1861111.1\nsamples = 6\nvalue = 131416.7"] ;
280 -> 282 ;
283 [label="x17_Ex <= 0.5\nmse = 166666.7\nsamples = 3\nvalue = 133000.0"] ;
282 -> 283 ;
284 [label="TotalBsmtSF <= -0.4\nmse = 62500.0\nsamples = 2\nvalue = 132750.0"] ;
283 -> 284 ;
285 [label="mse = 0.0\nsamples = 1\nvalue = 133000.0"] ;
284 -> 285 ;
286 [label="mse = 0.0\nsamples = 1\nvalue = 132500.0"] ;
284 -> 286 ;
287 [label="mse = 0.0\nsamples = 1\nvalue = 133500.0"] ;
283 -> 287 ;
288 [label="OverallCond <= -0.1\nmse = 828125.0\nsamples = 3\nvalue = 130625.0"] ;
282 -> 288 ;
289 [label="mse = 0.0\nsamples = 1\nvalue = 131500.0"] ;
288 -> 289 ;
290 [label="GrLivArea <= -1.3\nmse = 125000.0\nsamples = 2\nvalue = 129750.0"] ;
288 -> 290 ;
291 [label="mse = 0.0\nsamples = 1\nvalue = 129500.0"] ;
290 -> 291 ;
292 [label="mse = 0.0\nsamples = 1\nvalue = 130250.0"] ;
290 -> 292 ;
293 [label="mse = 0.0\nsamples = 1\nvalue = 119900.0"] ;
279 -> 293 ;
294 [label="WoodDeckSF <= 1.2\nmse = 15260000.0\nsamples = 3\nvalue = 143200.0"] ;
278 -> 294 ;
295 [label="1stFlrSF <= -0.6\nmse = 888888.9\nsamples = 2\nvalue = 146333.3"] ;
294 -> 295 ;
296 [label="mse = 0.0\nsamples = 1\nvalue = 147000.0"] ;
295 -> 296 ;
297 [label="mse = 0.0\nsamples = 1\nvalue = 145000.0"] ;
295 -> 297 ;
298 [label="mse = 0.0\nsamples = 1\nvalue = 138500.0"] ;
294 -> 298 ;
299 [label="WoodDeckSF <= -0.0\nmse = 19221088.1\nsamples = 14\nvalue = 141434.7"] ;
277 -> 299 ;
300 [label="BedroomAbvGr <= -0.5\nmse = 12182800.0\nsamples = 4\nvalue = 135740.0"] ;
299 -> 300 ;
301 [label="GarageArea <= 1.1\nmse = 1600355.6\nsamples = 3\nvalue = 137653.3"] ;
300 -> 301 ;
302 [label="mse = 0.0\nsamples = 1\nvalue = 135960.0"] ;
301 -> 302 ;
303 [label="YearBuilt <= -0.1\nmse = 250000.0\nsamples = 2\nvalue = 138500.0"] ;
301 -> 303 ;
304 [label="mse = 0.0\nsamples = 1\nvalue = 139000.0"] ;
303 -> 304 ;
305 [label="mse = 0.0\nsamples = 1\nvalue = 138000.0"] ;
303 -> 305 ;
306 [label="mse = 0.0\nsamples = 1\nvalue = 130000.0"] ;
300 -> 306 ;
307 [label="YearBuilt <= 1.1\nmse = 10143822.2\nsamples = 10\nvalue = 142953.3"] ;
299 -> 307 ;
308 [label="MoSold <= -0.3\nmse = 5201388.9\nsamples = 7\nvalue = 141916.7"] ;
307 -> 308 ;
309 [label="TotRmsAbvGrd <= -1.9\nmse = 3368055.6\nsamples = 3\nvalue = 140083.3"] ;
308 -> 309 ;
310 [label="mse = 0.0\nsamples = 1\nvalue = 136500.0"] ;
309 -> 310 ;
311 [label="BsmtUnfSF <= -1.0\nmse = 960000.0\nsamples = 2\nvalue = 140800.0"] ;
309 -> 311 ;
312 [label="mse = 0.0\nsamples = 1\nvalue = 142000.0"] ;
311 -> 312 ;
313 [label="mse = 0.0\nsamples = 1\nvalue = 140000.0"] ;
311 -> 313 ;
314 [label="Fireplaces <= -0.2\nmse = 312500.0\nsamples = 4\nvalue = 143750.0"] ;
308 -> 314 ;
315 [label="mse = 0.0\nsamples = 3\nvalue = 144000.0"] ;
314 -> 315 ;
316 [label="mse = 0.0\nsamples = 1\nvalue = 142500.0"] ;
314 -> 316 ;
317 [label="WoodDeckSF <= 0.5\nmse = 8420000.0\nsamples = 3\nvalue = 147100.0"] ;
307 -> 317 ;
318 [label="LotArea <= -0.6\nmse = 22500.0\nsamples = 2\nvalue = 149150.0"] ;
317 -> 318 ;
319 [label="mse = 0.0\nsamples = 1\nvalue = 149300.0"] ;
318 -> 319 ;
320 [label="mse = 0.0\nsamples = 1\nvalue = 149000.0"] ;
318 -> 320 ;
321 [label="mse = 0.0\nsamples = 1\nvalue = 143000.0"] ;
317 -> 321 ;
322 [label="BsmtUnfSF <= 0.3\nmse = 154602314.1\nsamples = 10\nvalue = 119117.7"] ;
248 -> 322 ;
323 [label="YearRemodAdd <= -0.6\nmse = 51774026.0\nsamples = 7\nvalue = 112819.6"] ;
322 -> 323 ;
324 [label="BsmtFinSF1 <= -0.1\nmse = 12564458.7\nsamples = 4\nvalue = 107336.0"] ;
323 -> 324 ;
325 [label="FullBath <= -0.1\nmse = 2161295.4\nsamples = 3\nvalue = 108803.2"] ;
324 -> 325 ;
326 [label="x11_Gable <= 0.5\nmse = 246016.0\nsamples = 2\nvalue = 109504.0"] ;
325 -> 326 ;
327 [label="mse = 0.0\nsamples = 1\nvalue = 109008.0"] ;
326 -> 327 ;
328 [label="mse = 0.0\nsamples = 1\nvalue = 110000.0"] ;
326 -> 328 ;
329 [label="mse = 0.0\nsamples = 1\nvalue = 106000.0"] ;
325 -> 329 ;
330 [label="mse = 0.0\nsamples = 1\nvalue = 100000.0"] ;
324 -> 330 ;
331 [label="x2_Reg <= 0.5\nmse = 19440000.0\nsamples = 3\nvalue = 119400.0"] ;
323 -> 331 ;
332 [label="mse = 0.0\nsamples = 1\nvalue = 127000.0"] ;
331 -> 332 ;
333 [label="x10_2Story <= 0.5\nmse = 6250000.0\nsamples = 2\nvalue = 117500.0"] ;
331 -> 333 ;
334 [label="mse = 0.0\nsamples = 1\nvalue = 115000.0"] ;
333 -> 334 ;
335 [label="mse = 0.0\nsamples = 1\nvalue = 120000.0"] ;
333 -> 335 ;
336 [label="TotalBsmtSF <= -0.1\nmse = 28324218.8\nsamples = 3\nvalue = 136437.5"] ;
322 -> 336 ;
337 [label="x2_Reg <= 0.5\nmse = 6125000.0\nsamples = 2\nvalue = 139250.0"] ;
336 -> 337 ;
338 [label="mse = 0.0\nsamples = 1\nvalue = 135750.0"] ;
337 -> 338 ;
339 [label="mse = 0.0\nsamples = 1\nvalue = 141000.0"] ;
337 -> 339 ;
340 [label="mse = 0.0\nsamples = 1\nvalue = 128000.0"] ;
336 -> 340 ;
341 [label="OverallQual <= -0.4\nmse = 558422485.2\nsamples = 111\nvalue = 148030.8"] ;
195 -> 341 ;
342 [label="BsmtFinSF1 <= -0.3\nmse = 482313026.3\nsamples = 64\nvalue = 139010.3"] ;
341 -> 342 ;
343 [label="YearRemodAdd <= -1.2\nmse = 859048808.8\nsamples = 13\nvalue = 115357.2"] ;
342 -> 343 ;
344 [label="YrSold <= -0.6\nmse = 516378423.5\nsamples = 5\nvalue = 84248.8"] ;
343 -> 344 ;
345 [label="x20_Typ <= 0.5\nmse = 206722222.2\nsamples = 2\nvalue = 103166.7"] ;
344 -> 345 ;
346 [label="mse = 0.0\nsamples = 1\nvalue = 93000.0"] ;
345 -> 346 ;
347 [label="mse = 0.0\nsamples = 1\nvalue = 123500.0"] ;
345 -> 347 ;
348 [label="GrLivArea <= -1.0\nmse = 110265788.7\nsamples = 3\nvalue = 65331.0"] ;
344 -> 348 ;
349 [label="mse = 0.0\nsamples = 1\nvalue = 80000.0"] ;
348 -> 349 ;
350 [label="x20_Typ <= 0.5\nmse = 4014012.2\nsamples = 2\nvalue = 57996.5"] ;
348 -> 350 ;
351 [label="mse = 0.0\nsamples = 1\nvalue = 60000.0"] ;
350 -> 351 ;
352 [label="mse = 0.0\nsamples = 1\nvalue = 55993.0"] ;
350 -> 352 ;
353 [label="BsmtUnfSF <= 1.3\nmse = 413421403.1\nsamples = 8\nvalue = 128689.3"] ;
343 -> 353 ;
354 [label="BsmtUnfSF <= 1.3\nmse = 102634670.1\nsamples = 7\nvalue = 136054.2"] ;
353 -> 354 ;
355 [label="YearBuilt <= -0.3\nmse = 37014900.0\nsamples = 6\nvalue = 132265.0"] ;
354 -> 355 ;
356 [label="GrLivArea <= -0.8\nmse = 25350.0\nsamples = 2\nvalue = 126370.0"] ;
355 -> 356 ;
357 [label="mse = 0.0\nsamples = 1\nvalue = 126500.0"] ;
356 -> 357 ;
358 [label="mse = 0.0\nsamples = 1\nvalue = 126175.0"] ;
356 -> 358 ;
359 [label="BsmtFinSF1 <= -0.5\nmse = 4502400.0\nsamples = 4\nvalue = 138160.0"] ;
355 -> 359 ;
360 [label="TotalBsmtSF <= 0.1\nmse = 220000.0\nsamples = 3\nvalue = 139200.0"] ;
359 -> 360 ;
361 [label="x2_IR1 <= 0.5\nmse = 8888.9\nsamples = 2\nvalue = 138933.3"] ;
360 -> 361 ;
362 [label="mse = 0.0\nsamples = 1\nvalue = 139000.0"] ;
361 -> 362 ;
363 [label="mse = 0.0\nsamples = 1\nvalue = 138800.0"] ;
361 -> 363 ;
364 [label="mse = 0.0\nsamples = 1\nvalue = 140000.0"] ;
360 -> 364 ;
365 [label="mse = 0.0\nsamples = 1\nvalue = 134000.0"] ;
359 -> 365 ;
366 [label="mse = 0.0\nsamples = 1\nvalue = 155000.0"] ;
354 -> 366 ;
367 [label="mse = 0.0\nsamples = 1\nvalue = 84500.0"] ;
353 -> 367 ;
368 [label="YearBuilt <= 0.2\nmse = 197197435.5\nsamples = 51\nvalue = 145234.9"] ;
342 -> 368 ;
369 [label="GrLivArea <= -0.5\nmse = 148951537.1\nsamples = 45\nvalue = 142718.4"] ;
368 -> 369 ;
370 [label="GarageArea <= -0.9\nmse = 83120805.0\nsamples = 35\nvalue = 139226.4"] ;
369 -> 370 ;
371 [label="MoSold <= -1.0\nmse = 8827629.8\nsamples = 9\nvalue = 132567.6"] ;
370 -> 371 ;
372 [label="MoSold <= -1.4\nmse = 2610585.9\nsamples = 4\nvalue = 129781.2"] ;
371 -> 372 ;
373 [label="LotArea <= -0.1\nmse = 216600.0\nsamples = 2\nvalue = 128570.0"] ;
372 -> 373 ;
374 [label="mse = 0.0\nsamples = 1\nvalue = 128950.0"] ;
373 -> 374 ;
375 [label="mse = 0.0\nsamples = 1\nvalue = 128000.0"] ;
373 -> 375 ;
376 [label="TotalBsmtSF <= 0.0\nmse = 80000.0\nsamples = 2\nvalue = 131800.0"] ;
372 -> 376 ;
377 [label="mse = 0.0\nsamples = 1\nvalue = 131400.0"] ;
376 -> 377 ;
378 [label="mse = 0.0\nsamples = 1\nvalue = 132000.0"] ;
376 -> 378 ;
379 [label="TotRmsAbvGrd <= -1.0\nmse = 1318024.7\nsamples = 5\nvalue = 135044.4"] ;
371 -> 379 ;
380 [label="mse = 0.0\nsamples = 1\nvalue = 137000.0"] ;
379 -> 380 ;
381 [label="GarageArea <= -0.9\nmse = 289795.9\nsamples = 4\nvalue = 134485.7"] ;
379 -> 381 ;
382 [label="BedroomAbvGr <= -0.5\nmse = 60000.0\nsamples = 3\nvalue = 134800.0"] ;
381 -> 382 ;
383 [label="mse = 0.0\nsamples = 1\nvalue = 134500.0"] ;
382 -> 383 ;
384 [label="mse = 0.0\nsamples = 2\nvalue = 135000.0"] ;
382 -> 384 ;
385 [label="mse = 0.0\nsamples = 1\nvalue = 133700.0"] ;
381 -> 385 ;
386 [label="GrLivArea <= -0.7\nmse = 87647735.5\nsamples = 26\nvalue = 142205.3"] ;
370 -> 386 ;
387 [label="BsmtFinSF2 <= -0.2\nmse = 47624451.3\nsamples = 18\nvalue = 138440.7"] ;
386 -> 387 ;
388 [label="FullBath <= -0.1\nmse = 44624433.1\nsamples = 15\nvalue = 136623.8"] ;
387 -> 388 ;
389 [label="LotArea <= 0.2\nmse = 29127225.0\nsamples = 14\nvalue = 135705.0"] ;
388 -> 389 ;
390 [label="MoSold <= 0.1\nmse = 20479705.9\nsamples = 12\nvalue = 134300.0"] ;
389 -> 390 ;
391 [label="BsmtFinSF1 <= 1.1\nmse = 5721875.0\nsamples = 6\nvalue = 130525.0"] ;
390 -> 391 ;
392 [label="1stFlrSF <= -0.3\nmse = 710612.2\nsamples = 5\nvalue = 129671.4"] ;
391 -> 392 ;
393 [label="mse = 0.0\nsamples = 1\nvalue = 131500.0"] ;
392 -> 393 ;
394 [label="BsmtFinSF1 <= 0.8\nmse = 178888.9\nsamples = 4\nvalue = 129366.7"] ;
392 -> 394 ;
395 [label="TotalBsmtSF <= 0.1\nmse = 2222.2\nsamples = 2\nvalue = 128966.7"] ;
394 -> 395 ;
396 [label="mse = 0.0\nsamples = 1\nvalue = 128900.0"] ;
395 -> 396 ;
397 [label="mse = 0.0\nsamples = 1\nvalue = 129000.0"] ;
395 -> 397 ;
398 [label="OpenPorchSF <= 0.1\nmse = 35555.6\nsamples = 2\nvalue = 129766.7"] ;
394 -> 398 ;
399 [label="mse = 0.0\nsamples = 1\nvalue = 129500.0"] ;
398 -> 399 ;
400 [label="mse = 0.0\nsamples = 1\nvalue = 129900.0"] ;
398 -> 400 ;
401 [label="mse = 0.0\nsamples = 1\nvalue = 136500.0"] ;
391 -> 401 ;
402 [label="x17_TA <= 0.5\nmse = 9670802.5\nsamples = 6\nvalue = 137655.6"] ;
390 -> 402 ;
403 [label="EnclosedPorch <= 1.1\nmse = 1304722.2\nsamples = 4\nvalue = 139733.3"] ;
402 -> 403 ;
404 [label="BsmtFinSF1 <= 0.6\nmse = 332600.0\nsamples = 3\nvalue = 139280.0"] ;
403 -> 404 ;
405 [label="mse = 0.0\nsamples = 1\nvalue = 139950.0"] ;
404 -> 405 ;
406 [label="BsmtUnfSF <= -1.0\nmse = 55555.6\nsamples = 2\nvalue = 138833.3"] ;
404 -> 406 ;
407 [label="mse = 0.0\nsamples = 1\nvalue = 138500.0"] ;
406 -> 407 ;
408 [label="mse = 0.0\nsamples = 1\nvalue = 139000.0"] ;
406 -> 408 ;
409 [label="mse = 0.0\nsamples = 1\nvalue = 142000.0"] ;
403 -> 409 ;
410 [label="TotalBsmtSF <= 0.2\nmse = 500000.0\nsamples = 2\nvalue = 133500.0"] ;
402 -> 410 ;
411 [label="mse = 0.0\nsamples = 1\nvalue = 134000.0"] ;
410 -> 411 ;
412 [label="mse = 0.0\nsamples = 1\nvalue = 132500.0"] ;
410 -> 412 ;
413 [label="x3_Lvl <= 0.5\nmse = 3555555.6\nsamples = 2\nvalue = 143666.7"] ;
389 -> 413 ;
414 [label="mse = 0.0\nsamples = 1\nvalue = 145000.0"] ;
413 -> 414 ;
415 [label="mse = 0.0\nsamples = 1\nvalue = 141000.0"] ;
413 -> 415 ;
416 [label="mse = 0.0\nsamples = 1\nvalue = 155000.0"] ;
388 -> 416 ;
417 [label="3SsnPorch <= 3.1\nmse = 6130000.0\nsamples = 3\nvalue = 144800.0"] ;
387 -> 417 ;
418 [label="YearBuilt <= -0.5\nmse = 866400.0\nsamples = 2\nvalue = 143760.0"] ;
417 -> 418 ;
419 [label="mse = 0.0\nsamples = 1\nvalue = 144900.0"] ;
418 -> 419 ;
420 [label="mse = 0.0\nsamples = 1\nvalue = 143000.0"] ;
418 -> 420 ;
421 [label="mse = 0.0\nsamples = 1\nvalue = 150000.0"] ;
417 -> 421 ;
422 [label="YearRemodAdd <= -0.7\nmse = 65720661.2\nsamples = 8\nvalue = 151445.5"] ;
386 -> 422 ;
423 [label="x5_Corner <= 0.5\nmse = 52650000.0\nsamples = 5\nvalue = 156400.0"] ;
422 -> 423 ;
424 [label="x7_Norm <= 0.5\nmse = 20085600.0\nsamples = 4\nvalue = 159080.0"] ;
423 -> 424 ;
425 [label="mse = 0.0\nsamples = 1\nvalue = 167500.0"] ;
424 -> 425 ;
426 [label="OpenPorchSF <= 0.0\nmse = 2951875.0\nsamples = 3\nvalue = 156975.0"] ;
424 -> 426 ;
427 [label="YrSold <= 0.1\nmse = 2222.2\nsamples = 2\nvalue = 157966.7"] ;
426 -> 427 ;
428 [label="mse = 0.0\nsamples = 1\nvalue = 158000.0"] ;
427 -> 428 ;
429 [label="mse = 0.0\nsamples = 1\nvalue = 157900.0"] ;
427 -> 429 ;
430 [label="mse = 0.0\nsamples = 1\nvalue = 154000.0"] ;
426 -> 430 ;
431 [label="mse = 0.0\nsamples = 1\nvalue = 143000.0"] ;
423 -> 431 ;
432 [label="BsmtFinSF2 <= 0.3\nmse = 16600000.0\nsamples = 3\nvalue = 145500.0"] ;
422 -> 432 ;
433 [label="GrLivArea <= -0.7\nmse = 750000.0\nsamples = 2\nvalue = 147500.0"] ;
432 -> 433 ;
434 [label="mse = 0.0\nsamples = 1\nvalue = 148000.0"] ;
433 -> 434 ;
435 [label="mse = 0.0\nsamples = 1\nvalue = 146000.0"] ;
433 -> 435 ;
436 [label="mse = 0.0\nsamples = 1\nvalue = 137500.0"] ;
432 -> 436 ;
437 [label="1stFlrSF <= 0.6\nmse = 157606479.3\nsamples = 10\nvalue = 157492.3"] ;
369 -> 437 ;
438 [label="OpenPorchSF <= -0.4\nmse = 53790347.2\nsamples = 9\nvalue = 160491.7"] ;
437 -> 438 ;
439 [label="x17_Gd <= 0.5\nmse = 5347222.2\nsamples = 4\nvalue = 153583.3"] ;
438 -> 439 ;
440 [label="HalfBath <= 0.2\nmse = 888888.9\nsamples = 2\nvalue = 155666.7"] ;
439 -> 440 ;
441 [label="mse = 0.0\nsamples = 1\nvalue = 157000.0"] ;
440 -> 441 ;
442 [label="mse = 0.0\nsamples = 1\nvalue = 155000.0"] ;
440 -> 442 ;
443 [label="LotArea <= -0.2\nmse = 1125000.0\nsamples = 2\nvalue = 151500.0"] ;
439 -> 443 ;
444 [label="mse = 0.0\nsamples = 1\nvalue = 150750.0"] ;
443 -> 444 ;
445 [label="mse = 0.0\nsamples = 1\nvalue = 153000.0"] ;
443 -> 445 ;
446 [label="x17_Gd <= 0.5\nmse = 6783333.3\nsamples = 5\nvalue = 167400.0"] ;
438 -> 446 ;
447 [label="LotArea <= 0.2\nmse = 46666.7\nsamples = 3\nvalue = 164800.0"] ;
446 -> 447 ;
448 [label="mse = 0.0\nsamples = 1\nvalue = 164500.0"] ;
447 -> 448 ;
449 [label="OverallCond <= 0.4\nmse = 2500.0\nsamples = 2\nvalue = 164950.0"] ;
447 -> 449 ;
450 [label="mse = 0.0\nsamples = 1\nvalue = 165000.0"] ;
449 -> 450 ;
451 [label="mse = 0.0\nsamples = 1\nvalue = 164900.0"] ;
449 -> 451 ;
452 [label="mse = 0.0\nsamples = 2\nvalue = 170000.0"] ;
446 -> 452 ;
453 [label="mse = 0.0\nsamples = 1\nvalue = 121500.0"] ;
437 -> 453 ;
454 [label="TotalBsmtSF <= 0.2\nmse = 95921875.0\nsamples = 6\nvalue = 166625.0"] ;
368 -> 454 ;
455 [label="YearBuilt <= 0.5\nmse = 28060000.0\nsamples = 4\nvalue = 159800.0"] ;
454 -> 455 ;
456 [label="BsmtUnfSF <= -1.1\nmse = 6722222.2\nsamples = 2\nvalue = 163666.7"] ;
455 -> 456 ;
457 [label="mse = 0.0\nsamples = 1\nvalue = 165500.0"] ;
456 -> 457 ;
458 [label="mse = 0.0\nsamples = 1\nvalue = 160000.0"] ;
456 -> 458 ;
459 [label="x19_TA <= 0.5\nmse = 4000000.0\nsamples = 2\nvalue = 154000.0"] ;
455 -> 459 ;
460 [label="mse = 0.0\nsamples = 1\nvalue = 152000.0"] ;
459 -> 460 ;
461 [label="mse = 0.0\nsamples = 1\nvalue = 156000.0"] ;
459 -> 461 ;
462 [label="x9_Duplex <= 0.5\nmse = 2000000.0\nsamples = 2\nvalue = 178000.0"] ;
454 -> 462 ;
463 [label="mse = 0.0\nsamples = 1\nvalue = 176000.0"] ;
462 -> 463 ;
464 [label="mse = 0.0\nsamples = 1\nvalue = 179000.0"] ;
462 -> 464 ;
465 [label="TotalBsmtSF <= 1.1\nmse = 434940054.9\nsamples = 47\nvalue = 158855.4"] ;
341 -> 465 ;
466 [label="YearRemodAdd <= 1.0\nmse = 293613628.5\nsamples = 46\nvalue = 156902.9"] ;
465 -> 466 ;
467 [label="BsmtFinSF1 <= 0.5\nmse = 209354911.7\nsamples = 42\nvalue = 153954.2"] ;
466 -> 467 ;
468 [label="LotArea <= -0.3\nmse = 189033588.6\nsamples = 25\nvalue = 149114.8"] ;
467 -> 468 ;
469 [label="x15_PConc <= 0.5\nmse = 121346938.8\nsamples = 4\nvalue = 126785.7"] ;
468 -> 469 ;
470 [label="LotArea <= -0.3\nmse = 54062500.0\nsamples = 3\nvalue = 123250.0"] ;
469 -> 470 ;
471 [label="TotalBsmtSF <= 0.0\nmse = 1500000.0\nsamples = 2\nvalue = 126500.0"] ;
470 -> 471 ;
472 [label="mse = 0.0\nsamples = 1\nvalue = 125000.0"] ;
471 -> 472 ;
473 [label="mse = 0.0\nsamples = 1\nvalue = 127500.0"] ;
471 -> 473 ;
474 [label="mse = 0.0\nsamples = 1\nvalue = 107000.0"] ;
470 -> 474 ;
475 [label="mse = 0.0\nsamples = 1\nvalue = 148000.0"] ;
469 -> 475 ;
476 [label="YearBuilt <= -0.3\nmse = 89666234.5\nsamples = 21\nvalue = 153339.2"] ;
468 -> 476 ;
477 [label="1stFlrSF <= 0.1\nmse = 37619822.5\nsamples = 6\nvalue = 147019.2"] ;
476 -> 477 ;
478 [label="x2_IR1 <= 0.5\nmse = 12000000.0\nsamples = 2\nvalue = 152000.0"] ;
477 -> 478 ;
479 [label="mse = 0.0\nsamples = 1\nvalue = 148000.0"] ;
478 -> 479 ;
480 [label="mse = 0.0\nsamples = 1\nvalue = 155000.0"] ;
478 -> 480 ;
481 [label="BedroomAbvGr <= -0.5\nmse = 4800347.2\nsamples = 4\nvalue = 141208.3"] ;
477 -> 481 ;
482 [label="TotRmsAbvGrd <= -0.6\nmse = 222222.2\nsamples = 2\nvalue = 139333.3"] ;
481 -> 482 ;
483 [label="mse = 0.0\nsamples = 1\nvalue = 140000.0"] ;
482 -> 483 ;
484 [label="mse = 0.0\nsamples = 1\nvalue = 139000.0"] ;
482 -> 484 ;
485 [label="x19_TA <= 0.5\nmse = 2347222.2\nsamples = 2\nvalue = 143083.3"] ;
481 -> 485 ;
486 [label="mse = 0.0\nsamples = 1\nvalue = 142000.0"] ;
485 -> 486 ;
487 [label="mse = 0.0\nsamples = 1\nvalue = 145250.0"] ;
485 -> 487 ;
488 [label="TotalBsmtSF <= -0.1\nmse = 84503802.1\nsamples = 15\nvalue = 156762.5"] ;
476 -> 488 ;
489 [label="EnclosedPorch <= 0.2\nmse = 7013888.9\nsamples = 3\nvalue = 146416.7"] ;
488 -> 489 ;
490 [label="YearRemodAdd <= 0.1\nmse = 3000000.0\nsamples = 2\nvalue = 148000.0"] ;
489 -> 490 ;
491 [label="mse = 0.0\nsamples = 1\nvalue = 147000.0"] ;
490 -> 491 ;
492 [label="mse = 0.0\nsamples = 1\nvalue = 151000.0"] ;
490 -> 492 ;
493 [label="mse = 0.0\nsamples = 1\nvalue = 143250.0"] ;
489 -> 493 ;
494 [label="1stFlrSF <= -0.0\nmse = 62762098.8\nsamples = 12\nvalue = 160211.1"] ;
488 -> 494 ;
495 [label="x2_Reg <= 0.5\nmse = 41798333.3\nsamples = 6\nvalue = 156700.0"] ;
494 -> 495 ;
496 [label="LotArea <= 0.1\nmse = 13612500.0\nsamples = 2\nvalue = 161650.0"] ;
495 -> 496 ;
497 [label="mse = 0.0\nsamples = 1\nvalue = 160000.0"] ;
496 -> 497 ;
498 [label="mse = 0.0\nsamples = 1\nvalue = 169900.0"] ;
496 -> 498 ;
499 [label="1stFlrSF <= -0.2\nmse = 20979166.7\nsamples = 4\nvalue = 151750.0"] ;
495 -> 499 ;
500 [label="BsmtUnfSF <= -1.2\nmse = 4640000.0\nsamples = 3\nvalue = 153600.0"] ;
499 -> 500 ;
501 [label="mse = 0.0\nsamples = 1\nvalue = 151000.0"] ;
500 -> 501 ;
502 [label="TotRmsAbvGrd <= -0.6\nmse = 222222.2\nsamples = 2\nvalue = 155333.3"] ;
500 -> 502 ;
503 [label="mse = 0.0\nsamples = 1\nvalue = 156000.0"] ;
502 -> 503 ;
504 [label="mse = 0.0\nsamples = 1\nvalue = 155000.0"] ;
502 -> 504 ;
505 [label="mse = 0.0\nsamples = 1\nvalue = 142500.0"] ;
499 -> 505 ;
506 [label="BsmtUnfSF <= 0.2\nmse = 30722222.2\nsamples = 6\nvalue = 167233.3"] ;
494 -> 506 ;
507 [label="1stFlrSF <= 0.3\nmse = 7202222.2\nsamples = 3\nvalue = 172133.3"] ;
506 -> 507 ;
508 [label="OpenPorchSF <= 0.4\nmse = 902500.0\nsamples = 2\nvalue = 173950.0"] ;
507 -> 508 ;
509 [label="mse = 0.0\nsamples = 1\nvalue = 173000.0"] ;
508 -> 509 ;
510 [label="mse = 0.0\nsamples = 1\nvalue = 174900.0"] ;
508 -> 510 ;
511 [label="mse = 0.0\nsamples = 1\nvalue = 168500.0"] ;
507 -> 511 ;
512 [label="Fireplaces <= 1.4\nmse = 6222222.2\nsamples = 3\nvalue = 162333.3"] ;
506 -> 512 ;
513 [label="YearBuilt <= -0.1\nmse = 1000000.0\nsamples = 2\nvalue = 164000.0"] ;
512 -> 513 ;
514 [label="mse = 0.0\nsamples = 1\nvalue = 163000.0"] ;
513 -> 514 ;
515 [label="mse = 0.0\nsamples = 1\nvalue = 165000.0"] ;
513 -> 515 ;
516 [label="mse = 0.0\nsamples = 1\nvalue = 159000.0"] ;
512 -> 516 ;
517 [label="Fireplaces <= 1.4\nmse = 142107599.5\nsamples = 17\nvalue = 161840.7"] ;
467 -> 517 ;
518 [label="TotRmsAbvGrd <= -0.6\nmse = 106479365.1\nsamples = 15\nvalue = 157866.7"] ;
517 -> 518 ;
519 [label="YearBuilt <= 0.9\nmse = 77000000.0\nsamples = 6\nvalue = 149833.3"] ;
518 -> 519 ;
520 [label="x0_RL <= 0.5\nmse = 14500000.0\nsamples = 5\nvalue = 145500.0"] ;
519 -> 520 ;
521 [label="mse = 0.0\nsamples = 1\nvalue = 153500.0"] ;
520 -> 521 ;
522 [label="x17_TA <= 0.5\nmse = 4472222.2\nsamples = 4\nvalue = 144166.7"] ;
520 -> 522 ;
523 [label="1stFlrSF <= -0.4\nmse = 1200000.0\nsamples = 3\nvalue = 145000.0"] ;
522 -> 523 ;
524 [label="mse = 0.0\nsamples = 1\nvalue = 147000.0"] ;
523 -> 524 ;
525 [label="x9_Duplex <= 0.5\nmse = 250000.0\nsamples = 2\nvalue = 144500.0"] ;
523 -> 525 ;
526 [label="mse = 0.0\nsamples = 1\nvalue = 145000.0"] ;
525 -> 526 ;
527 [label="mse = 0.0\nsamples = 1\nvalue = 144000.0"] ;
525 -> 527 ;
528 [label="mse = 0.0\nsamples = 1\nvalue = 140000.0"] ;
522 -> 528 ;
529 [label="mse = 0.0\nsamples = 1\nvalue = 165000.0"] ;
519 -> 529 ;
530 [label="LotArea <= -0.3\nmse = 43887430.6\nsamples = 9\nvalue = 163891.7"] ;
518 -> 530 ;
531 [label="GarageArea <= -0.0\nmse = 9610000.0\nsamples = 2\nvalue = 176100.0"] ;
530 -> 531 ;
532 [label="mse = 0.0\nsamples = 1\nvalue = 173000.0"] ;
531 -> 532 ;
533 [label="mse = 0.0\nsamples = 1\nvalue = 179200.0"] ;
531 -> 533 ;
534 [label="TotalBsmtSF <= 0.3\nmse = 14972500.0\nsamples = 7\nvalue = 161450.0"] ;
530 -> 534 ;
535 [label="YearRemodAdd <= -0.0\nmse = 6312500.0\nsamples = 4\nvalue = 157250.0"] ;
534 -> 535 ;
536 [label="MoSold <= 1.2\nmse = 62500.0\nsamples = 2\nvalue = 159750.0"] ;
535 -> 536 ;
537 [label="mse = 0.0\nsamples = 1\nvalue = 159500.0"] ;
536 -> 537 ;
538 [label="mse = 0.0\nsamples = 1\nvalue = 160000.0"] ;
536 -> 538 ;
539 [label="OpenPorchSF <= -0.1\nmse = 62500.0\nsamples = 2\nvalue = 154750.0"] ;
535 -> 539 ;
540 [label="mse = 0.0\nsamples = 1\nvalue = 154500.0"] ;
539 -> 540 ;
541 [label="mse = 0.0\nsamples = 1\nvalue = 155000.0"] ;
539 -> 541 ;
542 [label="1stFlrSF <= 0.2\nmse = 1145833.3\nsamples = 3\nvalue = 164250.0"] ;
534 -> 542 ;
543 [label="mse = 0.0\nsamples = 1\nvalue = 165000.0"] ;
542 -> 543 ;
544 [label="x11_Gable <= 0.5\nmse = 62500.0\nsamples = 2\nvalue = 162750.0"] ;
542 -> 544 ;
545 [label="mse = 0.0\nsamples = 1\nvalue = 163000.0"] ;
544 -> 545 ;
546 [label="mse = 0.0\nsamples = 1\nvalue = 162500.0"] ;
544 -> 546 ;
547 [label="LotArea <= 0.5\nmse = 18062500.0\nsamples = 2\nvalue = 175750.0"] ;
517 -> 547 ;
548 [label="mse = 0.0\nsamples = 1\nvalue = 171500.0"] ;
547 -> 548 ;
549 [label="mse = 0.0\nsamples = 1\nvalue = 180000.0"] ;
547 -> 549 ;
550 [label="YrSold <= -1.0\nmse = 165528755.1\nsamples = 4\nvalue = 186811.4"] ;
466 -> 550 ;
551 [label="1stFlrSF <= 0.3\nmse = 56325025.0\nsamples = 2\nvalue = 177495.0"] ;
550 -> 551 ;
552 [label="mse = 0.0\nsamples = 1\nvalue = 185000.0"] ;
551 -> 552 ;
553 [label="mse = 0.0\nsamples = 1\nvalue = 169990.0"] ;
551 -> 553 ;
554 [label="x0_FV <= 0.5\nmse = 41102222.2\nsamples = 2\nvalue = 199233.3"] ;
550 -> 554 ;
555 [label="mse = 0.0\nsamples = 1\nvalue = 194700.0"] ;
554 -> 555 ;
556 [label="mse = 0.0\nsamples = 1\nvalue = 208300.0"] ;
554 -> 556 ;
557 [label="mse = 0.0\nsamples = 1\nvalue = 235000.0"] ;
465 -> 557 ;
558 [label="x2_Reg <= 0.5\nmse = 1314099701.9\nsamples = 172\nvalue = 166413.0"] ;
2 -> 558 ;
559 [label="GrLivArea <= 0.5\nmse = 1100119341.5\nsamples = 72\nvalue = 186395.2"] ;
558 -> 559 ;
560 [label="OverallQual <= -1.5\nmse = 645968572.4\nsamples = 46\nvalue = 174584.6"] ;
559 -> 560 ;
561 [label="x5_CulDSac <= 0.5\nmse = 627540000.0\nsamples = 3\nvalue = 114800.0"] ;
560 -> 561 ;
562 [label="x14_Fa <= 0.5\nmse = 25000000.0\nsamples = 2\nvalue = 90000.0"] ;
561 -> 562 ;
563 [label="mse = 0.0\nsamples = 1\nvalue = 95000.0"] ;
562 -> 563 ;
564 [label="mse = 0.0\nsamples = 1\nvalue = 85000.0"] ;
562 -> 564 ;
565 [label="mse = 0.0\nsamples = 1\nvalue = 139600.0"] ;
561 -> 565 ;
566 [label="WoodDeckSF <= -0.1\nmse = 440400393.7\nsamples = 43\nvalue = 177860.5"] ;
560 -> 566 ;
567 [label="x14_Gd <= 0.5\nmse = 401879709.0\nsamples = 24\nvalue = 168474.8"] ;
566 -> 567 ;
568 [label="x17_Fa <= 0.5\nmse = 283855397.0\nsamples = 23\nvalue = 165797.7"] ;
567 -> 568 ;
569 [label="YearBuilt <= 0.4\nmse = 209946713.2\nsamples = 22\nvalue = 162965.2"] ;
568 -> 569 ;
570 [label="Fireplaces <= -0.2\nmse = 218036690.5\nsamples = 15\nvalue = 156756.4"] ;
569 -> 570 ;
571 [label="OpenPorchSF <= -0.4\nmse = 112319449.0\nsamples = 5\nvalue = 143166.8"] ;
570 -> 571 ;
572 [label="x18_N <= 0.5\nmse = 63257723.6\nsamples = 3\nvalue = 150111.3"] ;
571 -> 572 ;
573 [label="x9_1Fam <= 0.5\nmse = 18207289.0\nsamples = 2\nvalue = 155167.0"] ;
572 -> 573 ;
574 [label="mse = 0.0\nsamples = 1\nvalue = 150900.0"] ;
573 -> 574 ;
575 [label="mse = 0.0\nsamples = 1\nvalue = 159434.0"] ;
573 -> 575 ;
576 [label="mse = 0.0\nsamples = 1\nvalue = 140000.0"] ;
572 -> 576 ;
577 [label="x13_TA <= 0.5\nmse = 5062500.0\nsamples = 2\nvalue = 132750.0"] ;
571 -> 577 ;
578 [label="mse = 0.0\nsamples = 1\nvalue = 130500.0"] ;
577 -> 578 ;
579 [label="mse = 0.0\nsamples = 1\nvalue = 135000.0"] ;
577 -> 579 ;
580 [label="GarageCars <= -0.4\nmse = 175327021.5\nsamples = 10\nvalue = 161003.1"] ;
570 -> 580 ;
581 [label="x11_Gable <= 0.5\nmse = 124846666.7\nsamples = 3\nvalue = 149300.0"] ;
580 -> 581 ;
582 [label="GrLivArea <= -0.1\nmse = 2402500.0\nsamples = 2\nvalue = 141450.0"] ;
581 -> 582 ;
583 [label="mse = 0.0\nsamples = 1\nvalue = 139900.0"] ;
582 -> 583 ;
584 [label="mse = 0.0\nsamples = 1\nvalue = 143000.0"] ;
582 -> 584 ;
585 [label="mse = 0.0\nsamples = 1\nvalue = 165000.0"] ;
581 -> 585 ;
586 [label="GrLivArea <= 0.1\nmse = 74130625.0\nsamples = 7\nvalue = 168025.0"] ;
580 -> 586 ;
587 [label="BsmtFullBath <= 0.2\nmse = 19013888.9\nsamples = 2\nvalue = 179583.3"] ;
586 -> 587 ;
588 [label="mse = 0.0\nsamples = 1\nvalue = 185750.0"] ;
587 -> 588 ;
589 [label="mse = 0.0\nsamples = 1\nvalue = 176500.0"] ;
587 -> 589 ;
590 [label="1stFlrSF <= 1.4\nmse = 15959183.7\nsamples = 5\nvalue = 163071.4"] ;
586 -> 590 ;
591 [label="x17_Gd <= 0.5\nmse = 4300000.0\nsamples = 3\nvalue = 161000.0"] ;
590 -> 591 ;
592 [label="GarageArea <= 0.2\nmse = 222222.2\nsamples = 2\nvalue = 159333.3"] ;
591 -> 592 ;
593 [label="mse = 0.0\nsamples = 1\nvalue = 159000.0"] ;
592 -> 593 ;
594 [label="mse = 0.0\nsamples = 1\nvalue = 160000.0"] ;
592 -> 594 ;
595 [label="mse = 0.0\nsamples = 1\nvalue = 163500.0"] ;
591 -> 595 ;
596 [label="BsmtHalfBath <= 1.9\nmse = 7562500.0\nsamples = 2\nvalue = 168250.0"] ;
590 -> 596 ;
597 [label="mse = 0.0\nsamples = 1\nvalue = 171000.0"] ;
596 -> 597 ;
598 [label="mse = 0.0\nsamples = 1\nvalue = 165500.0"] ;
596 -> 598 ;
599 [label="2ndFlrSF <= 1.0\nmse = 34013866.8\nsamples = 7\nvalue = 172994.8"] ;
569 -> 599 ;
600 [label="GarageArea <= -0.5\nmse = 13555555.6\nsamples = 6\nvalue = 174333.3"] ;
599 -> 600 ;
601 [label="mse = 0.0\nsamples = 1\nvalue = 168000.0"] ;
600 -> 601 ;
602 [label="YearRemodAdd <= 0.7\nmse = 6640000.0\nsamples = 5\nvalue = 175600.0"] ;
600 -> 602 ;
603 [label="GrLivArea <= 0.1\nmse = 2250000.0\nsamples = 3\nvalue = 178500.0"] ;
602 -> 603 ;
604 [label="BsmtUnfSF <= 0.3\nmse = 222222.2\nsamples = 2\nvalue = 177666.7"] ;
603 -> 604 ;
605 [label="mse = 0.0\nsamples = 1\nvalue = 177000.0"] ;
604 -> 605 ;
606 [label="mse = 0.0\nsamples = 1\nvalue = 178000.0"] ;
604 -> 606 ;
607 [label="mse = 0.0\nsamples = 1\nvalue = 181000.0"] ;
603 -> 607 ;
608 [label="BsmtFullBath <= 0.2\nmse = 222222.2\nsamples = 2\nvalue = 173666.7"] ;
602 -> 608 ;
609 [label="mse = 0.0\nsamples = 1\nvalue = 174000.0"] ;
608 -> 609 ;
610 [label="mse = 0.0\nsamples = 1\nvalue = 173000.0"] ;
608 -> 610 ;
611 [label="mse = 0.0\nsamples = 1\nvalue = 156932.0"] ;
599 -> 611 ;
612 [label="mse = 0.0\nsamples = 1\nvalue = 197900.0"] ;
568 -> 612 ;
613 [label="mse = 0.0\nsamples = 1\nvalue = 218000.0"] ;
567 -> 613 ;
614 [label="1stFlrSF <= 1.2\nmse = 267633122.8\nsamples = 19\nvalue = 188626.5"] ;
566 -> 614 ;
615 [label="OpenPorchSF <= 0.0\nmse = 175417181.1\nsamples = 15\nvalue = 183617.9"] ;
614 -> 615 ;
616 [label="BedroomAbvGr <= 0.8\nmse = 106926153.8\nsamples = 8\nvalue = 172600.0"] ;
615 -> 616 ;
617 [label="WoodDeckSF <= 2.1\nmse = 28190000.0\nsamples = 6\nvalue = 177600.0"] ;
616 -> 617 ;
618 [label="BsmtUnfSF <= 0.7\nmse = 6744898.0\nsamples = 5\nvalue = 174428.6"] ;
617 -> 618 ;
619 [label="WoodDeckSF <= 1.7\nmse = 2138888.9\nsamples = 4\nvalue = 175333.3"] ;
618 -> 619 ;
620 [label="OverallCond <= -0.1\nmse = 860000.0\nsamples = 3\nvalue = 174800.0"] ;
619 -> 620 ;
621 [label="mse = 0.0\nsamples = 1\nvalue = 173000.0"] ;
620 -> 621 ;
622 [label="GarageArea <= 0.3\nmse = 62500.0\nsamples = 2\nvalue = 175250.0"] ;
620 -> 622 ;
623 [label="mse = 0.0\nsamples = 1\nvalue = 175000.0"] ;
622 -> 623 ;
624 [label="mse = 0.0\nsamples = 1\nvalue = 175500.0"] ;
622 -> 624 ;
625 [label="mse = 0.0\nsamples = 1\nvalue = 178000.0"] ;
619 -> 625 ;
626 [label="mse = 0.0\nsamples = 1\nvalue = 169000.0"] ;
618 -> 626 ;
627 [label="mse = 0.0\nsamples = 1\nvalue = 185000.0"] ;
617 -> 627 ;
628 [label="BsmtUnfSF <= 0.1\nmse = 8268888.9\nsamples = 2\nvalue = 155933.3"] ;
616 -> 628 ;
629 [label="mse = 0.0\nsamples = 1\nvalue = 160000.0"] ;
628 -> 629 ;
630 [label="mse = 0.0\nsamples = 1\nvalue = 153900.0"] ;
628 -> 630 ;
631 [label="WoodDeckSF <= 0.8\nmse = 38388888.9\nsamples = 7\nvalue = 193166.7"] ;
615 -> 631 ;
632 [label="1stFlrSF <= -0.8\nmse = 10909090.9\nsamples = 5\nvalue = 190000.0"] ;
631 -> 632 ;
633 [label="x3_Lvl <= 0.5\nmse = 1000000.0\nsamples = 2\nvalue = 186000.0"] ;
632 -> 633 ;
634 [label="mse = 0.0\nsamples = 1\nvalue = 185000.0"] ;
633 -> 634 ;
635 [label="mse = 0.0\nsamples = 1\nvalue = 187000.0"] ;
633 -> 635 ;
636 [label="x6_Gtl <= 0.5\nmse = 2204081.6\nsamples = 3\nvalue = 192285.7"] ;
632 -> 636 ;
637 [label="mse = 0.0\nsamples = 1\nvalue = 190000.0"] ;
636 -> 637 ;
638 [label="BsmtFinSF2 <= 1.0\nmse = 160000.0\nsamples = 2\nvalue = 193200.0"] ;
636 -> 638 ;
639 [label="mse = 0.0\nsamples = 1\nvalue = 193000.0"] ;
638 -> 639 ;
640 [label="mse = 0.0\nsamples = 1\nvalue = 194000.0"] ;
638 -> 640 ;
641 [label="WoodDeckSF <= 1.7\nmse = 10546875.0\nsamples = 2\nvalue = 201875.0"] ;
631 -> 641 ;
642 [label="mse = 0.0\nsamples = 1\nvalue = 207500.0"] ;
641 -> 642 ;
643 [label="mse = 0.0\nsamples = 1\nvalue = 200000.0"] ;
641 -> 643 ;
644 [label="OpenPorchSF <= 0.1\nmse = 34583333.3\nsamples = 4\nvalue = 212000.0"] ;
614 -> 644 ;
645 [label="x17_Ex <= 0.5\nmse = 10888888.9\nsamples = 2\nvalue = 217333.3"] ;
644 -> 645 ;
646 [label="mse = 0.0\nsamples = 1\nvalue = 215000.0"] ;
645 -> 646 ;
647 [label="mse = 0.0\nsamples = 1\nvalue = 222000.0"] ;
645 -> 647 ;
648 [label="TotalBsmtSF <= 1.2\nmse = 1388888.9\nsamples = 2\nvalue = 206666.7"] ;
644 -> 648 ;
649 [label="mse = 0.0\nsamples = 1\nvalue = 207500.0"] ;
648 -> 649 ;
650 [label="mse = 0.0\nsamples = 1\nvalue = 205000.0"] ;
648 -> 650 ;
651 [label="GarageArea <= -0.2\nmse = 1188947994.8\nsamples = 26\nvalue = 209130.5"] ;
559 -> 651 ;
652 [label="GrLivArea <= 1.0\nmse = 806115885.2\nsamples = 9\nvalue = 238593.8"] ;
651 -> 652 ;
653 [label="x6_Mod <= 0.5\nmse = 130604900.0\nsamples = 3\nvalue = 202070.0"] ;
652 -> 653 ;
654 [label="2ndFlrSF <= 1.4\nmse = 31257688.9\nsamples = 2\nvalue = 196093.3"] ;
653 -> 654 ;
655 [label="mse = 0.0\nsamples = 1\nvalue = 204000.0"] ;
654 -> 655 ;
656 [label="mse = 0.0\nsamples = 1\nvalue = 192140.0"] ;
654 -> 656 ;
657 [label="mse = 0.0\nsamples = 1\nvalue = 220000.0"] ;
653 -> 657 ;
658 [label="1stFlrSF <= 0.6\nmse = 249953488.9\nsamples = 6\nvalue = 254826.7"] ;
652 -> 658 ;
659 [label="x13_Gd <= 0.5\nmse = 4640000.0\nsamples = 3\nvalue = 241400.0"] ;
658 -> 659 ;
660 [label="TotRmsAbvGrd <= 1.8\nmse = 222222.2\nsamples = 2\nvalue = 239666.7"] ;
659 -> 660 ;
661 [label="mse = 0.0\nsamples = 1\nvalue = 239000.0"] ;
660 -> 661 ;
662 [label="mse = 0.0\nsamples = 1\nvalue = 240000.0"] ;
660 -> 662 ;
663 [label="mse = 0.0\nsamples = 1\nvalue = 244000.0"] ;
659 -> 663 ;
664 [label="TotRmsAbvGrd <= 1.2\nmse = 49570850.0\nsamples = 3\nvalue = 271610.0"] ;
658 -> 664 ;
665 [label="x23_Normal <= 0.5\nmse = 915755.6\nsamples = 2\nvalue = 275646.7"] ;
664 -> 665 ;
666 [label="mse = 0.0\nsamples = 1\nvalue = 274970.0"] ;
665 -> 666 ;
667 [label="mse = 0.0\nsamples = 1\nvalue = 277000.0"] ;
665 -> 667 ;
668 [label="mse = 0.0\nsamples = 1\nvalue = 259500.0"] ;
664 -> 668 ;
669 [label="x3_HLS <= 0.5\nmse = 754061728.4\nsamples = 17\nvalue = 194944.4"] ;
651 -> 669 ;
670 [label="BsmtFinSF1 <= 0.7\nmse = 446374566.0\nsamples = 15\nvalue = 201604.2"] ;
669 -> 670 ;
671 [label="YearRemodAdd <= -0.5\nmse = 270969529.1\nsamples = 12\nvalue = 193868.4"] ;
670 -> 671 ;
672 [label="WoodDeckSF <= -0.3\nmse = 26888888.9\nsamples = 2\nvalue = 165333.3"] ;
671 -> 672 ;
673 [label="mse = 0.0\nsamples = 1\nvalue = 158000.0"] ;
672 -> 673 ;
674 [label="mse = 0.0\nsamples = 1\nvalue = 169000.0"] ;
672 -> 674 ;
675 [label="WoodDeckSF <= 0.3\nmse = 135436523.4\nsamples = 10\nvalue = 199218.8"] ;
671 -> 675 ;
676 [label="x15_CBlock <= 0.5\nmse = 88187500.0\nsamples = 6\nvalue = 208500.0"] ;
675 -> 676 ;
677 [label="BsmtUnfSF <= -1.1\nmse = 1722222.2\nsamples = 4\nvalue = 213833.3"] ;
676 -> 677 ;
678 [label="mse = 0.0\nsamples = 1\nvalue = 211000.0"] ;
677 -> 678 ;
679 [label="OpenPorchSF <= -0.1\nmse = 140000.0\nsamples = 3\nvalue = 214400.0"] ;
677 -> 679 ;
680 [label="mse = 0.0\nsamples = 1\nvalue = 214000.0"] ;
679 -> 680 ;
681 [label="x18_Y <= 0.5\nmse = 55555.6\nsamples = 2\nvalue = 214666.7"] ;
679 -> 681 ;
682 [label="mse = 0.0\nsamples = 1\nvalue = 214500.0"] ;
681 -> 682 ;
683 [label="mse = 0.0\nsamples = 1\nvalue = 215000.0"] ;
681 -> 683 ;
684 [label="x22_COD <= 0.5\nmse = 6250000.0\nsamples = 2\nvalue = 192500.0"] ;
676 -> 684 ;
685 [label="mse = 0.0\nsamples = 1\nvalue = 195000.0"] ;
684 -> 685 ;
686 [label="mse = 0.0\nsamples = 1\nvalue = 190000.0"] ;
684 -> 686 ;
687 [label="x5_Inside <= 0.5\nmse = 10402343.8\nsamples = 4\nvalue = 189937.5"] ;
675 -> 687 ;
688 [label="mse = 0.0\nsamples = 1\nvalue = 197500.0"] ;
687 -> 688 ;
689 [label="GarageArea <= 0.2\nmse = 2551020.4\nsamples = 3\nvalue = 188857.1"] ;
687 -> 689 ;
690 [label="mse = 0.0\nsamples = 1\nvalue = 187500.0"] ;
689 -> 690 ;
691 [label="TotRmsAbvGrd <= 3.1\nmse = 222222.2\nsamples = 2\nvalue = 190666.7"] ;
689 -> 691 ;
692 [label="mse = 0.0\nsamples = 1\nvalue = 191000.0"] ;
691 -> 692 ;
693 [label="mse = 0.0\nsamples = 1\nvalue = 190000.0"] ;
691 -> 693 ;
694 [label="x13_Gd <= 0.5\nmse = 21400000.0\nsamples = 3\nvalue = 231000.0"] ;
670 -> 694 ;
695 [label="OpenPorchSF <= 0.3\nmse = 6750000.0\nsamples = 2\nvalue = 233000.0"] ;
694 -> 695 ;
696 [label="mse = 0.0\nsamples = 1\nvalue = 237500.0"] ;
695 -> 696 ;
697 [label="mse = 0.0\nsamples = 1\nvalue = 231500.0"] ;
695 -> 697 ;
698 [label="mse = 0.0\nsamples = 1\nvalue = 223000.0"] ;
694 -> 698 ;
699 [label="x23_Family <= 0.5\nmse = 22222222.2\nsamples = 2\nvalue = 141666.7"] ;
669 -> 699 ;
700 [label="mse = 0.0\nsamples = 1\nvalue = 145000.0"] ;
699 -> 700 ;
701 [label="mse = 0.0\nsamples = 1\nvalue = 135000.0"] ;
699 -> 701 ;
702 [label="YearRemodAdd <= -0.8\nmse = 957928883.8\nsamples = 100\nvalue = 151616.1"] ;
558 -> 702 ;
703 [label="ScreenPorch <= 3.9\nmse = 712467881.0\nsamples = 42\nvalue = 134807.8"] ;
702 -> 703 ;
704 [label="GrLivArea <= -0.1\nmse = 467653664.8\nsamples = 40\nvalue = 132224.4"] ;
703 -> 704 ;
705 [label="x22_WD <= 0.5\nmse = 454802222.2\nsamples = 5\nvalue = 103766.7"] ;
704 -> 705 ;
706 [label="mse = 0.0\nsamples = 1\nvalue = 157900.0"] ;
705 -> 706 ;
707 [label="KitchenAbvGr <= 2.1\nmse = 99562500.0\nsamples = 4\nvalue = 97000.0"] ;
705 -> 707 ;
708 [label="x17_Gd <= 0.5\nmse = 41785714.3\nsamples = 3\nvalue = 94000.0"] ;
707 -> 708 ;
709 [label="GrLivArea <= -0.1\nmse = 5000000.0\nsamples = 2\nvalue = 96500.0"] ;
708 -> 709 ;
710 [label="mse = 0.0\nsamples = 1\nvalue = 91500.0"] ;
709 -> 710 ;
711 [label="mse = 0.0\nsamples = 1\nvalue = 97500.0"] ;
709 -> 711 ;
712 [label="mse = 0.0\nsamples = 1\nvalue = 79000.0"] ;
708 -> 712 ;
713 [label="mse = 0.0\nsamples = 1\nvalue = 118000.0"] ;
707 -> 713 ;
714 [label="Fireplaces <= -0.2\nmse = 324482361.0\nsamples = 35\nvalue = 136640.3"] ;
704 -> 714 ;
715 [label="LotArea <= 0.1\nmse = 221343770.8\nsamples = 22\nvalue = 128904.7"] ;
714 -> 715 ;
716 [label="1stFlrSF <= -0.6\nmse = 187315104.0\nsamples = 16\nvalue = 122536.0"] ;
715 -> 716 ;
717 [label="x15_CBlock <= 0.5\nmse = 170805306.1\nsamples = 3\nvalue = 137557.1"] ;
716 -> 717 ;
718 [label="HalfBath <= 0.2\nmse = 20250000.0\nsamples = 2\nvalue = 132500.0"] ;
717 -> 718 ;
719 [label="mse = 0.0\nsamples = 1\nvalue = 137000.0"] ;
718 -> 719 ;
720 [label="mse = 0.0\nsamples = 1\nvalue = 128000.0"] ;
718 -> 720 ;
721 [label="mse = 0.0\nsamples = 1\nvalue = 167900.0"] ;
717 -> 721 ;
722 [label="BsmtUnfSF <= -1.1\nmse = 71864969.1\nsamples = 13\nvalue = 116694.4"] ;
716 -> 722 ;
723 [label="x21_N <= 0.5\nmse = 1000000.0\nsamples = 2\nvalue = 99000.0"] ;
722 -> 723 ;
724 [label="mse = 0.0\nsamples = 1\nvalue = 100000.0"] ;
723 -> 724 ;
725 [label="mse = 0.0\nsamples = 1\nvalue = 98000.0"] ;
723 -> 725 ;
726 [label="x5_Corner <= 0.5\nmse = 36694335.9\nsamples = 11\nvalue = 118906.2"] ;
722 -> 726 ;
727 [label="LotArea <= -0.1\nmse = 17729591.8\nsamples = 9\nvalue = 120642.9"] ;
726 -> 727 ;
728 [label="x13_TA <= 0.5\nmse = 13816326.5\nsamples = 5\nvalue = 123571.4"] ;
727 -> 728 ;
729 [label="mse = 0.0\nsamples = 1\nvalue = 118500.0"] ;
728 -> 729 ;
730 [label="x18_N <= 0.5\nmse = 4940000.0\nsamples = 4\nvalue = 125600.0"] ;
728 -> 730 ;
731 [label="YearBuilt <= -0.2\nmse = 125000.0\nsamples = 3\nvalue = 124500.0"] ;
730 -> 731 ;
732 [label="BsmtUnfSF <= 0.3\nmse = 55555.6\nsamples = 2\nvalue = 124666.7"] ;
731 -> 732 ;
733 [label="mse = 0.0\nsamples = 1\nvalue = 125000.0"] ;
732 -> 733 ;
734 [label="mse = 0.0\nsamples = 1\nvalue = 124500.0"] ;
732 -> 734 ;
735 [label="mse = 0.0\nsamples = 1\nvalue = 124000.0"] ;
731 -> 735 ;
736 [label="mse = 0.0\nsamples = 1\nvalue = 130000.0"] ;
730 -> 736 ;
737 [label="YrSold <= 1.3\nmse = 4489795.9\nsamples = 4\nvalue = 117714.3"] ;
727 -> 737 ;
738 [label="MoSold <= -0.8\nmse = 784722.2\nsamples = 3\nvalue = 116916.7"] ;
737 -> 738 ;
739 [label="mse = 0.0\nsamples = 1\nvalue = 115000.0"] ;
738 -> 739 ;
740 [label="x15_BrkTil <= 0.5\nmse = 60000.0\nsamples = 2\nvalue = 117300.0"] ;
738 -> 740 ;
741 [label="mse = 0.0\nsamples = 1\nvalue = 117000.0"] ;
740 -> 741 ;
742 [label="mse = 0.0\nsamples = 1\nvalue = 117500.0"] ;
740 -> 742 ;
743 [label="mse = 0.0\nsamples = 1\nvalue = 122500.0"] ;
737 -> 743 ;
744 [label="BsmtUnfSF <= 0.8\nmse = 562500.0\nsamples = 2\nvalue = 106750.0"] ;
726 -> 744 ;
745 [label="mse = 0.0\nsamples = 1\nvalue = 106000.0"] ;
744 -> 745 ;
746 [label="mse = 0.0\nsamples = 1\nvalue = 107500.0"] ;
744 -> 746 ;
747 [label="x17_TA <= 0.5\nmse = 31692756.8\nsamples = 6\nvalue = 142172.8"] ;
715 -> 747 ;
748 [label="x21_N <= 0.5\nmse = 791282.0\nsamples = 2\nvalue = 137629.0"] ;
747 -> 748 ;
749 [label="mse = 0.0\nsamples = 1\nvalue = 137000.0"] ;
748 -> 749 ;
750 [label="mse = 0.0\nsamples = 1\nvalue = 138887.0"] ;
748 -> 750 ;
751 [label="2ndFlrSF <= 1.3\nmse = 21301388.9\nsamples = 4\nvalue = 146716.7"] ;
747 -> 751 ;
752 [label="x0_RL <= 0.5\nmse = 11760000.0\nsamples = 3\nvalue = 145200.0"] ;
751 -> 752 ;
753 [label="mse = 0.0\nsamples = 1\nvalue = 152000.0"] ;
752 -> 753 ;
754 [label="TotalBsmtSF <= 0.5\nmse = 250000.0\nsamples = 2\nvalue = 143500.0"] ;
752 -> 754 ;
755 [label="mse = 0.0\nsamples = 1\nvalue = 144000.0"] ;
754 -> 755 ;
756 [label="mse = 0.0\nsamples = 1\nvalue = 143000.0"] ;
754 -> 756 ;
757 [label="mse = 0.0\nsamples = 1\nvalue = 154300.0"] ;
751 -> 757 ;
758 [label="GarageArea <= -0.0\nmse = 215010361.3\nsamples = 13\nvalue = 150269.7"] ;
714 -> 758 ;
759 [label="BsmtUnfSF <= 0.0\nmse = 92376543.2\nsamples = 7\nvalue = 164611.1"] ;
758 -> 759 ;
760 [label="YearRemodAdd <= -1.2\nmse = 5296875.0\nsamples = 3\nvalue = 171625.0"] ;
759 -> 760 ;
761 [label="GarageCars <= -0.4\nmse = 1562500.0\nsamples = 2\nvalue = 173750.0"] ;
760 -> 761 ;
762 [label="mse = 0.0\nsamples = 1\nvalue = 175000.0"] ;
761 -> 762 ;
763 [label="mse = 0.0\nsamples = 1\nvalue = 172500.0"] ;
761 -> 763 ;
764 [label="mse = 0.0\nsamples = 1\nvalue = 169500.0"] ;
760 -> 764 ;
765 [label="1stFlrSF <= -0.1\nmse = 91200000.0\nsamples = 4\nvalue = 159000.0"] ;
759 -> 765 ;
766 [label="GrLivArea <= 0.2\nmse = 12750000.0\nsamples = 3\nvalue = 154500.0"] ;
765 -> 766 ;
767 [label="mse = 0.0\nsamples = 1\nvalue = 149000.0"] ;
766 -> 767 ;
768 [label="OpenPorchSF <= 0.4\nmse = 3555555.6\nsamples = 2\nvalue = 156333.3"] ;
766 -> 768 ;
769 [label="mse = 0.0\nsamples = 1\nvalue = 159000.0"] ;
768 -> 769 ;
770 [label="mse = 0.0\nsamples = 1\nvalue = 155000.0"] ;
768 -> 770 ;
771 [label="mse = 0.0\nsamples = 1\nvalue = 177000.0"] ;
765 -> 771 ;
772 [label="BedroomAbvGr <= 0.8\nmse = 37036417.2\nsamples = 6\nvalue = 139513.7"] ;
758 -> 772 ;
773 [label="YrSold <= -0.2\nmse = 35555.6\nsamples = 2\nvalue = 149766.7"] ;
772 -> 773 ;
774 [label="mse = 0.0\nsamples = 1\nvalue = 149900.0"] ;
773 -> 774 ;
775 [label="mse = 0.0\nsamples = 1\nvalue = 149500.0"] ;
773 -> 775 ;
776 [label="1stFlrSF <= -0.3\nmse = 2648256.0\nsamples = 4\nvalue = 136096.0"] ;
772 -> 776 ;
777 [label="mse = 0.0\nsamples = 1\nvalue = 140000.0"] ;
776 -> 777 ;
778 [label="YearBuilt <= -1.5\nmse = 835992.0\nsamples = 3\nvalue = 135608.0"] ;
776 -> 778 ;
779 [label="mse = 0.0\nsamples = 1\nvalue = 136500.0"] ;
778 -> 779 ;
780 [label="OpenPorchSF <= 0.1\nmse = 80656.0\nsamples = 2\nvalue = 134716.0"] ;
778 -> 780 ;
781 [label="mse = 0.0\nsamples = 1\nvalue = 135000.0"] ;
780 -> 781 ;
782 [label="mse = 0.0\nsamples = 1\nvalue = 134432.0"] ;
780 -> 782 ;
783 [label="HalfBath <= 0.2\nmse = 1200622500.0\nsamples = 2\nvalue = 221350.0"] ;
703 -> 783 ;
784 [label="mse = 0.0\nsamples = 1\nvalue = 256000.0"] ;
783 -> 784 ;
785 [label="mse = 0.0\nsamples = 1\nvalue = 186700.0"] ;
783 -> 785 ;
786 [label="TotalBsmtSF <= 0.8\nmse = 759389743.3\nsamples = 58\nvalue = 164647.2"] ;
702 -> 786 ;
787 [label="2ndFlrSF <= 0.8\nmse = 594290766.0\nsamples = 50\nvalue = 157595.9"] ;
786 -> 787 ;
788 [label="Fireplaces <= -0.2\nmse = 353307166.6\nsamples = 27\nvalue = 143372.3"] ;
787 -> 788 ;
789 [label="1stFlrSF <= 0.4\nmse = 123452969.6\nsamples = 14\nvalue = 130368.1"] ;
788 -> 789 ;
790 [label="KitchenAbvGr <= 2.1\nmse = 80369795.9\nsamples = 11\nvalue = 133814.3"] ;
789 -> 790 ;
791 [label="TotRmsAbvGrd <= -0.6\nmse = 40825619.8\nsamples = 9\nvalue = 137127.3"] ;
790 -> 791 ;
792 [label="mse = 0.0\nsamples = 1\nvalue = 152000.0"] ;
791 -> 792 ;
793 [label="x19_Ex <= 0.5\nmse = 20576400.0\nsamples = 8\nvalue = 135640.0"] ;
791 -> 793 ;
794 [label="2ndFlrSF <= 0.5\nmse = 6135555.6\nsamples = 7\nvalue = 136933.3"] ;
793 -> 794 ;
795 [label="GarageArea <= -1.2\nmse = 1171875.0\nsamples = 3\nvalue = 139375.0"] ;
794 -> 795 ;
796 [label="mse = 0.0\nsamples = 1\nvalue = 137500.0"] ;
795 -> 796 ;
797 [label="mse = 0.0\nsamples = 2\nvalue = 140000.0"] ;
795 -> 797 ;
798 [label="ScreenPorch <= 0.8\nmse = 1521600.0\nsamples = 4\nvalue = 134980.0"] ;
794 -> 798 ;
799 [label="MoSold <= 1.0\nmse = 676875.0\nsamples = 3\nvalue = 135475.0"] ;
798 -> 799 ;
800 [label="mse = 0.0\nsamples = 2\nvalue = 135000.0"] ;
799 -> 800 ;
801 [label="mse = 0.0\nsamples = 1\nvalue = 136900.0"] ;
799 -> 801 ;
802 [label="mse = 0.0\nsamples = 1\nvalue = 133000.0"] ;
798 -> 802 ;
803 [label="mse = 0.0\nsamples = 1\nvalue = 124000.0"] ;
793 -> 803 ;
804 [label="x17_TA <= 0.5\nmse = 37555555.6\nsamples = 2\nvalue = 121666.7"] ;
790 -> 804 ;
805 [label="mse = 0.0\nsamples = 1\nvalue = 113000.0"] ;
804 -> 805 ;
806 [label="mse = 0.0\nsamples = 1\nvalue = 126000.0"] ;
804 -> 806 ;
807 [label="x3_Bnk <= 0.5\nmse = 10451592.0\nsamples = 3\nvalue = 114286.0"] ;
789 -> 807 ;
808 [label="mse = 0.0\nsamples = 2\nvalue = 112000.0"] ;
807 -> 808 ;
809 [label="mse = 0.0\nsamples = 1\nvalue = 118858.0"] ;
807 -> 809 ;
810 [label="YrSold <= 0.5\nmse = 244944152.2\nsamples = 13\nvalue = 156376.5"] ;
788 -> 810 ;
811 [label="YearBuilt <= -0.3\nmse = 46608395.1\nsamples = 7\nvalue = 167877.8"] ;
810 -> 811 ;
812 [label="BsmtFinSF1 <= 0.7\nmse = 13388888.9\nsamples = 4\nvalue = 163666.7"] ;
811 -> 812 ;
813 [label="x15_PConc <= 0.5\nmse = 1562500.0\nsamples = 2\nvalue = 158750.0"] ;
812 -> 813 ;
814 [label="mse = 0.0\nsamples = 1\nvalue = 160000.0"] ;
813 -> 814 ;
815 [label="mse = 0.0\nsamples = 1\nvalue = 157500.0"] ;
813 -> 815 ;
816 [label="TotRmsAbvGrd <= 0.6\nmse = 1171875.0\nsamples = 2\nvalue = 166125.0"] ;
812 -> 816 ;
817 [label="mse = 0.0\nsamples = 1\nvalue = 168000.0"] ;
816 -> 817 ;
818 [label="mse = 0.0\nsamples = 1\nvalue = 165500.0"] ;
816 -> 818 ;
819 [label="1stFlrSF <= -0.9\nmse = 6646666.7\nsamples = 3\nvalue = 176300.0"] ;
811 -> 819 ;
820 [label="mse = 0.0\nsamples = 1\nvalue = 179900.0"] ;
819 -> 820 ;
821 [label="1stFlrSF <= 0.2\nmse = 250000.0\nsamples = 2\nvalue = 174500.0"] ;
819 -> 821 ;
822 [label="mse = 0.0\nsamples = 1\nvalue = 175000.0"] ;
821 -> 822 ;
823 [label="mse = 0.0\nsamples = 1\nvalue = 174000.0"] ;
821 -> 823 ;
824 [label="TotRmsAbvGrd <= 1.2\nmse = 151839843.8\nsamples = 6\nvalue = 143437.5"] ;
810 -> 824 ;
825 [label="LotArea <= -0.0\nmse = 41500000.0\nsamples = 5\nvalue = 147500.0"] ;
824 -> 825 ;
826 [label="BsmtUnfSF <= -1.0\nmse = 10305555.6\nsamples = 4\nvalue = 145166.7"] ;
825 -> 826 ;
827 [label="mse = 0.0\nsamples = 1\nvalue = 139000.0"] ;
826 -> 827 ;
828 [label="x5_FR2 <= 0.5\nmse = 3240000.0\nsamples = 3\nvalue = 146400.0"] ;
826 -> 828 ;
829 [label="x17_Ex <= 0.5\nmse = 500000.0\nsamples = 2\nvalue = 145000.0"] ;
828 -> 829 ;
830 [label="mse = 0.0\nsamples = 1\nvalue = 146000.0"] ;
829 -> 830 ;
831 [label="mse = 0.0\nsamples = 1\nvalue = 144500.0"] ;
829 -> 831 ;
832 [label="mse = 0.0\nsamples = 1\nvalue = 148500.0"] ;
828 -> 832 ;
833 [label="mse = 0.0\nsamples = 1\nvalue = 161500.0"] ;
825 -> 833 ;
834 [label="mse = 0.0\nsamples = 1\nvalue = 115000.0"] ;
824 -> 834 ;
835 [label="TotalBsmtSF <= -0.4\nmse = 474245434.5\nsamples = 23\nvalue = 169995.9"] ;
787 -> 835 ;
836 [label="x3_Lvl <= 0.5\nmse = 309842985.4\nsamples = 17\nvalue = 176501.3"] ;
835 -> 836 ;
837 [label="mse = 0.0\nsamples = 1\nvalue = 225000.0"] ;
836 -> 837 ;
838 [label="LotArea <= -0.1\nmse = 157808684.7\nsamples = 16\nvalue = 173156.6"] ;
836 -> 838 ;
839 [label="YearBuilt <= -0.6\nmse = 150900516.8\nsamples = 9\nvalue = 164892.1"] ;
838 -> 839 ;
840 [label="YearRemodAdd <= 0.5\nmse = 9388888.9\nsamples = 2\nvalue = 144333.3"] ;
839 -> 840 ;
841 [label="mse = 0.0\nsamples = 1\nvalue = 146500.0"] ;
840 -> 841 ;
842 [label="mse = 0.0\nsamples = 1\nvalue = 140000.0"] ;
840 -> 842 ;
843 [label="WoodDeckSF <= 0.5\nmse = 42784553.7\nsamples = 7\nvalue = 170499.1"] ;
839 -> 843 ;
844 [label="YrSold <= -0.2\nmse = 13372009.0\nsamples = 6\nvalue = 168749.0"] ;
843 -> 844 ;
845 [label="x9_1Fam <= 0.5\nmse = 3256680.6\nsamples = 3\nvalue = 165998.3"] ;
844 -> 845 ;
846 [label="mse = 0.0\nsamples = 1\nvalue = 168500.0"] ;
845 -> 846 ;
847 [label="x5_Inside <= 0.5\nmse = 191268.8\nsamples = 2\nvalue = 164747.5"] ;
845 -> 847 ;
848 [label="mse = 0.0\nsamples = 1\nvalue = 165000.0"] ;
847 -> 848 ;
849 [label="mse = 0.0\nsamples = 1\nvalue = 163990.0"] ;
847 -> 849 ;
850 [label="2ndFlrSF <= 0.9\nmse = 171875.0\nsamples = 3\nvalue = 172875.0"] ;
844 -> 850 ;
851 [label="mse = 0.0\nsamples = 1\nvalue = 172500.0"] ;
850 -> 851 ;
852 [label="BsmtHalfBath <= 1.9\nmse = 62500.0\nsamples = 2\nvalue = 173250.0"] ;
850 -> 852 ;
853 [label="mse = 0.0\nsamples = 1\nvalue = 173500.0"] ;
852 -> 853 ;
854 [label="mse = 0.0\nsamples = 1\nvalue = 173000.0"] ;
852 -> 854 ;
855 [label="mse = 0.0\nsamples = 1\nvalue = 188000.0"] ;
843 -> 855 ;
856 [label="LotArea <= -0.0\nmse = 41011933.3\nsamples = 7\nvalue = 180870.0"] ;
838 -> 856 ;
857 [label="FullBath <= 1.7\nmse = 888888.9\nsamples = 3\nvalue = 187666.7"] ;
856 -> 857 ;
858 [label="mse = 0.0\nsamples = 2\nvalue = 187000.0"] ;
857 -> 858 ;
859 [label="mse = 0.0\nsamples = 1\nvalue = 189000.0"] ;
857 -> 859 ;
860 [label="OverallCond <= -0.1\nmse = 16433209.9\nsamples = 4\nvalue = 176338.9"] ;
856 -> 860 ;
861 [label="mse = 0.0\nsamples = 1\nvalue = 165150.0"] ;
860 -> 861 ;
862 [label="x17_Ex <= 0.5\nmse = 882343.8\nsamples = 3\nvalue = 177737.5"] ;
860 -> 862 ;
863 [label="mse = 0.0\nsamples = 1\nvalue = 179900.0"] ;
862 -> 863 ;
864 [label="x23_Normal <= 0.5\nmse = 244898.0\nsamples = 2\nvalue = 177428.6"] ;
862 -> 864 ;
865 [label="mse = 0.0\nsamples = 1\nvalue = 178000.0"] ;
864 -> 865 ;
866 [label="mse = 0.0\nsamples = 1\nvalue = 177000.0"] ;
864 -> 866 ;
867 [label="MiscVal <= 0.3\nmse = 311851093.8\nsamples = 6\nvalue = 144787.5"] ;
835 -> 867 ;
868 [label="TotRmsAbvGrd <= 1.8\nmse = 37259183.7\nsamples = 5\nvalue = 138471.4"] ;
867 -> 868 ;
869 [label="YrSold <= 0.1\nmse = 10968055.6\nsamples = 4\nvalue = 136316.7"] ;
868 -> 869 ;
870 [label="YearRemodAdd <= 0.8\nmse = 3802500.0\nsamples = 2\nvalue = 131950.0"] ;
869 -> 870 ;
871 [label="mse = 0.0\nsamples = 1\nvalue = 133900.0"] ;
870 -> 871 ;
872 [label="mse = 0.0\nsamples = 1\nvalue = 130000.0"] ;
870 -> 872 ;
873 [label="HalfBath <= 2.2\nmse = 250000.0\nsamples = 2\nvalue = 138500.0"] ;
869 -> 873 ;
874 [label="mse = 0.0\nsamples = 1\nvalue = 138000.0"] ;
873 -> 874 ;
875 [label="mse = 0.0\nsamples = 1\nvalue = 139000.0"] ;
873 -> 875 ;
876 [label="mse = 0.0\nsamples = 1\nvalue = 151400.0"] ;
868 -> 876 ;
877 [label="mse = 0.0\nsamples = 1\nvalue = 189000.0"] ;
867 -> 877 ;
878 [label="LotArea <= -0.0\nmse = 250791523.4\nsamples = 8\nvalue = 196818.8"] ;
786 -> 878 ;
879 [label="LotArea <= -0.1\nmse = 115959183.7\nsamples = 4\nvalue = 181571.4"] ;
878 -> 879 ;
880 [label="BsmtUnfSF <= -0.5\nmse = 6250000.0\nsamples = 2\nvalue = 190500.0"] ;
879 -> 880 ;
881 [label="mse = 0.0\nsamples = 1\nvalue = 188000.0"] ;
880 -> 881 ;
882 [label="mse = 0.0\nsamples = 1\nvalue = 193000.0"] ;
880 -> 882 ;
883 [label="WoodDeckSF <= 0.1\nmse = 14222222.2\nsamples = 2\nvalue = 169666.7"] ;
879 -> 883 ;
884 [label="mse = 0.0\nsamples = 1\nvalue = 167000.0"] ;
883 -> 884 ;
885 [label="mse = 0.0\nsamples = 1\nvalue = 175000.0"] ;
883 -> 885 ;
886 [label="BsmtFinSF1 <= 1.6\nmse = 34206172.8\nsamples = 4\nvalue = 208677.8"] ;
878 -> 886 ;
887 [label="GarageArea <= -1.0\nmse = 15388163.3\nsamples = 3\nvalue = 206157.1"] ;
886 -> 887 ;
888 [label="mse = 0.0\nsamples = 1\nvalue = 200000.0"] ;
887 -> 888 ;
889 [label="x15_CBlock <= 0.5\nmse = 313600.0\nsamples = 2\nvalue = 208620.0"] ;
887 -> 889 ;
890 [label="mse = 0.0\nsamples = 1\nvalue = 208900.0"] ;
889 -> 890 ;
891 [label="mse = 0.0\nsamples = 1\nvalue = 207500.0"] ;
889 -> 891 ;
892 [label="mse = 0.0\nsamples = 1\nvalue = 217500.0"] ;
886 -> 892 ;
893 [label="BsmtFinSF1 <= 1.1\nmse = 2179224951.0\nsamples = 172\nvalue = 210388.3"] ;
1 -> 893 ;
894 [label="GrLivArea <= 0.8\nmse = 1372470396.2\nsamples = 147\nvalue = 199055.5"] ;
893 -> 894 ;
895 [label="GarageArea <= 0.3\nmse = 893722053.8\nsamples = 115\nvalue = 189312.6"] ;
894 -> 895 ;
896 [label="x0_RM <= 0.5\nmse = 589180908.4\nsamples = 72\nvalue = 177057.8"] ;
895 -> 896 ;
897 [label="BsmtFinSF2 <= 0.4\nmse = 447986012.5\nsamples = 63\nvalue = 181498.9"] ;
896 -> 897 ;
898 [label="GrLivArea <= -0.0\nmse = 355276135.5\nsamples = 61\nvalue = 179731.2"] ;
897 -> 898 ;
899 [label="TotalBsmtSF <= -0.7\nmse = 257383987.8\nsamples = 33\nvalue = 171330.0"] ;
898 -> 899 ;
900 [label="2ndFlrSF <= 0.7\nmse = 154932714.6\nsamples = 16\nvalue = 164295.7"] ;
899 -> 900 ;
901 [label="x22_WD <= 0.5\nmse = 41028437.6\nsamples = 5\nvalue = 150429.1"] ;
900 -> 901 ;
902 [label="mse = 0.0\nsamples = 1\nvalue = 164700.0"] ;
901 -> 902 ;
903 [label="x23_Normal <= 0.5\nmse = 8266467.6\nsamples = 4\nvalue = 148050.7"] ;
901 -> 903 ;
904 [label="mse = 0.0\nsamples = 1\nvalue = 144152.0"] ;
903 -> 904 ;
905 [label="x15_BrkTil <= 0.5\nmse = 1000000.0\nsamples = 3\nvalue = 150000.0"] ;
903 -> 905 ;
906 [label="mse = 0.0\nsamples = 2\nvalue = 151000.0"] ;
905 -> 906 ;
907 [label="mse = 0.0\nsamples = 1\nvalue = 149000.0"] ;
905 -> 907 ;
908 [label="GrLivArea <= -0.1\nmse = 107442668.0\nsamples = 11\nvalue = 168917.9"] ;
900 -> 908 ;
909 [label="BsmtFinSF1 <= 0.5\nmse = 76195919.4\nsamples = 8\nvalue = 165034.1"] ;
908 -> 909 ;
910 [label="WoodDeckSF <= -0.3\nmse = 40431831.6\nsamples = 7\nvalue = 163436.3"] ;
909 -> 910 ;
911 [label="x7_RRAn <= 0.5\nmse = 9114861.8\nsamples = 3\nvalue = 157750.8"] ;
910 -> 911 ;
912 [label="x5_FR2 <= 0.5\nmse = 130729.7\nsamples = 2\nvalue = 155626.2"] ;
911 -> 912 ;
913 [label="mse = 0.0\nsamples = 1\nvalue = 155835.0"] ;
912 -> 913 ;
914 [label="mse = 0.0\nsamples = 1\nvalue = 155000.0"] ;
912 -> 914 ;
915 [label="mse = 0.0\nsamples = 1\nvalue = 162000.0"] ;
911 -> 915 ;
916 [label="x11_Hip <= 0.5\nmse = 25393244.4\nsamples = 4\nvalue = 167226.7"] ;
910 -> 916 ;
917 [label="GrLivArea <= -0.1\nmse = 7246093.8\nsamples = 3\nvalue = 165687.5"] ;
916 -> 917 ;
918 [label="x17_Ex <= 0.5\nmse = 4000000.0\nsamples = 2\nvalue = 164000.0"] ;
917 -> 918 ;
919 [label="mse = 0.0\nsamples = 1\nvalue = 160000.0"] ;
918 -> 919 ;
920 [label="mse = 0.0\nsamples = 1\nvalue = 165000.0"] ;
918 -> 920 ;
921 [label="mse = 0.0\nsamples = 1\nvalue = 168500.0"] ;
917 -> 921 ;
922 [label="mse = 0.0\nsamples = 1\nvalue = 179540.0"] ;
916 -> 922 ;
923 [label="mse = 0.0\nsamples = 1\nvalue = 189000.0"] ;
909 -> 923 ;
924 [label="GrLivArea <= -0.1\nmse = 4705174.0\nsamples = 3\nvalue = 181346.0"] ;
908 -> 924 ;
925 [label="mse = 0.0\nsamples = 1\nvalue = 184000.0"] ;
924 -> 925 ;
926 [label="x2_Reg <= 0.5\nmse = 15605.6\nsamples = 2\nvalue = 179576.7"] ;
924 -> 926 ;
927 [label="mse = 0.0\nsamples = 1\nvalue = 179665.0"] ;
926 -> 927 ;
928 [label="mse = 0.0\nsamples = 1\nvalue = 179400.0"] ;
926 -> 928 ;
929 [label="OpenPorchSF <= -0.4\nmse = 254640747.9\nsamples = 17\nvalue = 179208.4"] ;
899 -> 929 ;
930 [label="YearBuilt <= -0.0\nmse = 94310590.2\nsamples = 6\nvalue = 162129.4"] ;
929 -> 930 ;
931 [label="mse = 0.0\nsamples = 1\nvalue = 140000.0"] ;
930 -> 931 ;
932 [label="GarageArea <= -0.3\nmse = 27831003.1\nsamples = 5\nvalue = 165290.7"] ;
930 -> 932 ;
933 [label="MoSold <= -0.1\nmse = 20672.2\nsamples = 2\nvalue = 160098.3"] ;
932 -> 933 ;
934 [label="mse = 0.0\nsamples = 1\nvalue = 159895.0"] ;
933 -> 934 ;
935 [label="mse = 0.0\nsamples = 1\nvalue = 160200.0"] ;
933 -> 935 ;
936 [label="GrLivArea <= -0.5\nmse = 13302675.0\nsamples = 3\nvalue = 169185.0"] ;
932 -> 936 ;
937 [label="mse = 0.0\nsamples = 1\nvalue = 175500.0"] ;
936 -> 937 ;
938 [label="WoodDeckSF <= -0.3\nmse = 12800.0\nsamples = 2\nvalue = 167080.0"] ;
936 -> 938 ;
939 [label="mse = 0.0\nsamples = 1\nvalue = 167000.0"] ;
938 -> 939 ;
940 [label="mse = 0.0\nsamples = 1\nvalue = 167240.0"] ;
938 -> 940 ;
941 [label="YearRemodAdd <= 1.2\nmse = 128226500.4\nsamples = 11\nvalue = 187245.6"] ;
929 -> 941 ;
942 [label="x9_1Fam <= 0.5\nmse = 46533331.1\nsamples = 10\nvalue = 184948.4"] ;
941 -> 942 ;
943 [label="mse = 0.0\nsamples = 1\nvalue = 171750.0"] ;
942 -> 943 ;
944 [label="OpenPorchSF <= -0.4\nmse = 24740337.2\nsamples = 9\nvalue = 186833.9"] ;
942 -> 944 ;
945 [label="mse = 0.0\nsamples = 1\nvalue = 200141.0"] ;
944 -> 945 ;
946 [label="LotArea <= -0.2\nmse = 11974244.2\nsamples = 8\nvalue = 185810.3"] ;
944 -> 946 ;
947 [label="x10_1.5Fin <= 0.5\nmse = 933888.9\nsamples = 2\nvalue = 190633.3"] ;
946 -> 947 ;
948 [label="mse = 0.0\nsamples = 1\nvalue = 192000.0"] ;
947 -> 948 ;
949 [label="mse = 0.0\nsamples = 1\nvalue = 189950.0"] ;
947 -> 949 ;
950 [label="WoodDeckSF <= 0.2\nmse = 6214336.0\nsamples = 6\nvalue = 184363.4"] ;
946 -> 950 ;
951 [label="1stFlrSF <= -0.3\nmse = 2133160.6\nsamples = 4\nvalue = 182605.7"] ;
950 -> 951 ;
952 [label="mse = 0.0\nsamples = 1\nvalue = 184000.0"] ;
951 -> 952 ;
953 [label="YearRemodAdd <= 1.1\nmse = 377990.2\nsamples = 3\nvalue = 181211.3"] ;
951 -> 953 ;
954 [label="1stFlrSF <= 0.6\nmse = 100489.0\nsamples = 2\nvalue = 180817.0"] ;
953 -> 954 ;
955 [label="mse = 0.0\nsamples = 1\nvalue = 181134.0"] ;
954 -> 955 ;
956 [label="mse = 0.0\nsamples = 1\nvalue = 180500.0"] ;
954 -> 956 ;
957 [label="mse = 0.0\nsamples = 1\nvalue = 182000.0"] ;
953 -> 957 ;
958 [label="LotArea <= -0.1\nmse = 750000.0\nsamples = 2\nvalue = 187000.0"] ;
950 -> 958 ;
959 [label="mse = 0.0\nsamples = 1\nvalue = 185500.0"] ;
958 -> 959 ;
960 [label="mse = 0.0\nsamples = 1\nvalue = 187500.0"] ;
958 -> 960 ;
961 [label="mse = 0.0\nsamples = 1\nvalue = 224000.0"] ;
941 -> 961 ;
962 [label="YearRemodAdd <= -0.1\nmse = 293047925.3\nsamples = 28\nvalue = 189410.9"] ;
898 -> 962 ;
963 [label="OverallCond <= -0.1\nmse = 189052000.0\nsamples = 6\nvalue = 168800.0"] ;
962 -> 963 ;
964 [label="x23_Abnorml <= 0.5\nmse = 9345833.3\nsamples = 3\nvalue = 159150.0"] ;
963 -> 964 ;
965 [label="x17_Gd <= 0.5\nmse = 302500.0\nsamples = 2\nvalue = 163450.0"] ;
964 -> 965 ;
966 [label="mse = 0.0\nsamples = 1\nvalue = 162900.0"] ;
965 -> 966 ;
967 [label="mse = 0.0\nsamples = 1\nvalue = 164000.0"] ;
965 -> 967 ;
968 [label="mse = 0.0\nsamples = 1\nvalue = 157000.0"] ;
964 -> 968 ;
969 [label="x17_Gd <= 0.5\nmse = 109401875.0\nsamples = 3\nvalue = 183275.0"] ;
963 -> 969 ;
970 [label="x21_Y <= 0.5\nmse = 20055555.6\nsamples = 2\nvalue = 177666.7"] ;
969 -> 970 ;
971 [label="mse = 0.0\nsamples = 1\nvalue = 184000.0"] ;
970 -> 971 ;
972 [label="mse = 0.0\nsamples = 1\nvalue = 174500.0"] ;
970 -> 972 ;
973 [label="mse = 0.0\nsamples = 1\nvalue = 200100.0"] ;
969 -> 973 ;
974 [label="YearBuilt <= 1.1\nmse = 171155084.9\nsamples = 22\nvalue = 195136.1"] ;
962 -> 974 ;
975 [label="BedroomAbvGr <= 0.8\nmse = 114228195.9\nsamples = 21\nvalue = 193825.7"] ;
974 -> 975 ;
976 [label="MSSubClass <= -0.5\nmse = 73519025.0\nsamples = 16\nvalue = 190844.8"] ;
975 -> 976 ;
977 [label="WoodDeckSF <= -0.0\nmse = 19421875.0\nsamples = 3\nvalue = 205375.0"] ;
976 -> 977 ;
978 [label="mse = 0.0\nsamples = 1\nvalue = 213000.0"] ;
977 -> 978 ;
979 [label="x15_CBlock <= 0.5\nmse = 55555.6\nsamples = 2\nvalue = 202833.3"] ;
977 -> 979 ;
980 [label="mse = 0.0\nsamples = 1\nvalue = 203000.0"] ;
979 -> 980 ;
981 [label="mse = 0.0\nsamples = 1\nvalue = 202500.0"] ;
979 -> 981 ;
982 [label="YrSold <= -1.0\nmse = 42989600.0\nsamples = 13\nvalue = 188520.0"] ;
976 -> 982 ;
983 [label="x13_TA <= 0.5\nmse = 3062500.0\nsamples = 2\nvalue = 178250.0"] ;
982 -> 983 ;
984 [label="mse = 0.0\nsamples = 1\nvalue = 180000.0"] ;
983 -> 984 ;
985 [label="mse = 0.0\nsamples = 1\nvalue = 176500.0"] ;
983 -> 985 ;
986 [label="x9_Twnhs <= 0.5\nmse = 26678004.5\nsamples = 11\nvalue = 190476.2"] ;
982 -> 986 ;
987 [label="MiscVal <= 0.4\nmse = 11977500.0\nsamples = 10\nvalue = 191350.0"] ;
986 -> 987 ;
988 [label="GrLivArea <= 0.4\nmse = 7240000.0\nsamples = 8\nvalue = 189900.0"] ;
987 -> 988 ;
989 [label="BedroomAbvGr <= -0.5\nmse = 1672839.5\nsamples = 4\nvalue = 191777.8"] ;
988 -> 989 ;
990 [label="TotalBsmtSF <= 0.7\nmse = 421875.0\nsamples = 3\nvalue = 191375.0"] ;
989 -> 990 ;
991 [label="mse = 0.0\nsamples = 2\nvalue = 191000.0"] ;
990 -> 991 ;
992 [label="mse = 0.0\nsamples = 1\nvalue = 192500.0"] ;
990 -> 992 ;
993 [label="mse = 0.0\nsamples = 1\nvalue = 195000.0"] ;
989 -> 993 ;
994 [label="x19_TA <= 0.5\nmse = 2368055.6\nsamples = 4\nvalue = 187083.3"] ;
988 -> 994 ;
995 [label="GrLivArea <= 0.5\nmse = 296875.0\nsamples = 3\nvalue = 188125.0"] ;
994 -> 995 ;
996 [label="x15_CBlock <= 0.5\nmse = 55555.6\nsamples = 2\nvalue = 187833.3"] ;
995 -> 996 ;
997 [label="mse = 0.0\nsamples = 1\nvalue = 188000.0"] ;
996 -> 997 ;
998 [label="mse = 0.0\nsamples = 1\nvalue = 187500.0"] ;
996 -> 998 ;
999 [label="mse = 0.0\nsamples = 1\nvalue = 189000.0"] ;
995 -> 999 ;
1000 [label="mse = 0.0\nsamples = 1\nvalue = 185000.0"] ;
994 -> 1000 ;
1001 [label="x15_CBlock <= 0.5\nmse = 960000.0\nsamples = 2\nvalue = 195700.0"] ;
987 -> 1001 ;
1002 [label="mse = 0.0\nsamples = 1\nvalue = 194500.0"] ;
1001 -> 1002 ;
1003 [label="mse = 0.0\nsamples = 1\nvalue = 196500.0"] ;
1001 -> 1003 ;
1004 [label="mse = 0.0\nsamples = 1\nvalue = 173000.0"] ;
986 -> 1004 ;
1005 [label="x2_IR1 <= 0.5\nmse = 60462222.2\nsamples = 5\nvalue = 208233.3"] ;
975 -> 1005 ;
1006 [label="BsmtFinSF1 <= -0.3\nmse = 20246666.7\nsamples = 3\nvalue = 215300.0"] ;
1005 -> 1006 ;
1007 [label="mse = 0.0\nsamples = 1\nvalue = 221000.0"] ;
1006 -> 1007 ;
1008 [label="2ndFlrSF <= 1.5\nmse = 6002500.0\nsamples = 2\nvalue = 212450.0"] ;
1006 -> 1008 ;
1009 [label="mse = 0.0\nsamples = 1\nvalue = 210000.0"] ;
1008 -> 1009 ;
1010 [label="mse = 0.0\nsamples = 1\nvalue = 214900.0"] ;
1008 -> 1010 ;
1011 [label="x5_Corner <= 0.5\nmse = 802222.2\nsamples = 2\nvalue = 201166.7"] ;
1005 -> 1011 ;
1012 [label="mse = 0.0\nsamples = 1\nvalue = 201800.0"] ;
1011 -> 1012 ;
1013 [label="mse = 0.0\nsamples = 1\nvalue = 199900.0"] ;
1011 -> 1013 ;
1014 [label="mse = 0.0\nsamples = 1\nvalue = 241000.0"] ;
974 -> 1014 ;
1015 [label="TotalBsmtSF <= 0.4\nmse = 1388888.9\nsamples = 2\nvalue = 239833.3"] ;
897 -> 1015 ;
1016 [label="mse = 0.0\nsamples = 1\nvalue = 239000.0"] ;
1015 -> 1016 ;
1017 [label="mse = 0.0\nsamples = 1\nvalue = 241500.0"] ;
1015 -> 1017 ;
1018 [label="BsmtFinSF1 <= -0.8\nmse = 196665763.9\nsamples = 9\nvalue = 139308.3"] ;
896 -> 1018 ;
1019 [label="x17_TA <= 0.5\nmse = 70873600.0\nsamples = 7\nvalue = 134120.0"] ;
1018 -> 1019 ;
1020 [label="x3_Bnk <= 0.5\nmse = 19713593.8\nsamples = 5\nvalue = 137787.5"] ;
1019 -> 1020 ;
1021 [label="GrLivArea <= 0.4\nmse = 7701600.0\nsamples = 3\nvalue = 134980.0"] ;
1020 -> 1021 ;
1022 [label="TotRmsAbvGrd <= -0.0\nmse = 1562500.0\nsamples = 2\nvalue = 136250.0"] ;
1021 -> 1022 ;
1023 [label="mse = 0.0\nsamples = 1\nvalue = 135000.0"] ;
1022 -> 1023 ;
1024 [label="mse = 0.0\nsamples = 1\nvalue = 137500.0"] ;
1022 -> 1024 ;
1025 [label="mse = 0.0\nsamples = 1\nvalue = 129900.0"] ;
1021 -> 1025 ;
1026 [label="x21_Y <= 0.5\nmse = 4702222.2\nsamples = 2\nvalue = 142466.7"] ;
1020 -> 1026 ;
1027 [label="mse = 0.0\nsamples = 1\nvalue = 139400.0"] ;
1026 -> 1027 ;
1028 [label="mse = 0.0\nsamples = 1\nvalue = 144000.0"] ;
1026 -> 1028 ;
1029 [label="1stFlrSF <= -1.1\nmse = 6502500.0\nsamples = 2\nvalue = 119450.0"] ;
1019 -> 1029 ;
1030 [label="mse = 0.0\nsamples = 1\nvalue = 116900.0"] ;
1029 -> 1030 ;
1031 [label="mse = 0.0\nsamples = 1\nvalue = 122000.0"] ;
1029 -> 1031 ;
1032 [label="x14_Fa <= 0.5\nmse = 18062500.0\nsamples = 2\nvalue = 165250.0"] ;
1018 -> 1032 ;
1033 [label="mse = 0.0\nsamples = 1\nvalue = 161000.0"] ;
1032 -> 1033 ;
1034 [label="mse = 0.0\nsamples = 1\nvalue = 169500.0"] ;
1032 -> 1034 ;
1035 [label="YearBuilt <= 0.1\nmse = 721585848.6\nsamples = 43\nvalue = 210164.0"] ;
895 -> 1035 ;
1036 [label="GarageArea <= 0.4\nmse = 274138888.9\nsamples = 4\nvalue = 161166.7"] ;
1035 -> 1036 ;
1037 [label="TotRmsAbvGrd <= -0.0\nmse = 3555555.6\nsamples = 2\nvalue = 176666.7"] ;
1036 -> 1037 ;
1038 [label="mse = 0.0\nsamples = 1\nvalue = 178000.0"] ;
1037 -> 1038 ;
1039 [label="mse = 0.0\nsamples = 1\nvalue = 174000.0"] ;
1037 -> 1039 ;
1040 [label="x23_Normal <= 0.5\nmse = 64222222.2\nsamples = 2\nvalue = 145666.7"] ;
1036 -> 1040 ;
1041 [label="mse = 0.0\nsamples = 1\nvalue = 140000.0"] ;
1040 -> 1041 ;
1042 [label="mse = 0.0\nsamples = 1\nvalue = 157000.0"] ;
1040 -> 1042 ;
1043 [label="TotalBsmtSF <= 1.1\nmse = 506232241.6\nsamples = 39\nvalue = 214983.4"] ;
1035 -> 1043 ;
1044 [label="GarageArea <= 0.3\nmse = 352759439.9\nsamples = 28\nvalue = 205740.9"] ;
1043 -> 1044 ;
1045 [label="mse = 0.0\nsamples = 1\nvalue = 250580.0"] ;
1044 -> 1045 ;
1046 [label="GrLivArea <= 0.6\nmse = 259938073.5\nsamples = 27\nvalue = 203380.9"] ;
1044 -> 1046 ;
1047 [label="x22_WD <= 0.5\nmse = 164437444.3\nsamples = 24\nvalue = 199749.3"] ;
1046 -> 1047 ;
1048 [label="2ndFlrSF <= 1.2\nmse = 42593765.4\nsamples = 5\nvalue = 212186.1"] ;
1047 -> 1048 ;
1049 [label="HalfBath <= 0.2\nmse = 13304375.0\nsamples = 4\nvalue = 210225.0"] ;
1048 -> 1049 ;
1050 [label="x23_Partial <= 0.5\nmse = 1267500.0\nsamples = 2\nvalue = 206850.0"] ;
1049 -> 1050 ;
1051 [label="mse = 0.0\nsamples = 1\nvalue = 207500.0"] ;
1050 -> 1051 ;
1052 [label="mse = 0.0\nsamples = 1\nvalue = 204900.0"] ;
1050 -> 1052 ;
1053 [label="x2_IR2 <= 0.5\nmse = 2560000.0\nsamples = 2\nvalue = 213600.0"] ;
1049 -> 1053 ;
1054 [label="mse = 0.0\nsamples = 1\nvalue = 215200.0"] ;
1053 -> 1054 ;
1055 [label="mse = 0.0\nsamples = 1\nvalue = 212000.0"] ;
1053 -> 1055 ;
1056 [label="mse = 0.0\nsamples = 1\nvalue = 227875.0"] ;
1048 -> 1056 ;
1057 [label="GrLivArea <= -0.1\nmse = 132572216.0\nsamples = 19\nvalue = 195272.0"] ;
1047 -> 1057 ;
1058 [label="YrSold <= 1.3\nmse = 108760165.3\nsamples = 9\nvalue = 187927.3"] ;
1057 -> 1058 ;
1059 [label="BsmtUnfSF <= 1.7\nmse = 53594375.0\nsamples = 7\nvalue = 182925.0"] ;
1058 -> 1059 ;
1060 [label="YearBuilt <= 1.1\nmse = 10776875.0\nsamples = 3\nvalue = 177425.0"] ;
1059 -> 1060 ;
1061 [label="BsmtFinSF1 <= -0.2\nmse = 802222.2\nsamples = 2\nvalue = 179266.7"] ;
1060 -> 1061 ;
1062 [label="mse = 0.0\nsamples = 1\nvalue = 178000.0"] ;
1061 -> 1062 ;
1063 [label="mse = 0.0\nsamples = 1\nvalue = 179900.0"] ;
1061 -> 1063 ;
1064 [label="mse = 0.0\nsamples = 1\nvalue = 171900.0"] ;
1060 -> 1064 ;
1065 [label="TotRmsAbvGrd <= -0.0\nmse = 35911875.0\nsamples = 4\nvalue = 188425.0"] ;
1059 -> 1065 ;
1066 [label="LotArea <= -0.4\nmse = 13268888.9\nsamples = 3\nvalue = 191366.7"] ;
1065 -> 1066 ;
1067 [label="mse = 0.0\nsamples = 1\nvalue = 196000.0"] ;
1066 -> 1067 ;
1068 [label="x2_IR2 <= 0.5\nmse = 3802500.0\nsamples = 2\nvalue = 189050.0"] ;
1066 -> 1068 ;
1069 [label="mse = 0.0\nsamples = 1\nvalue = 191000.0"] ;
1068 -> 1069 ;
1070 [label="mse = 0.0\nsamples = 1\nvalue = 187100.0"] ;
1068 -> 1070 ;
1071 [label="mse = 0.0\nsamples = 1\nvalue = 179600.0"] ;
1065 -> 1071 ;
1072 [label="GarageCars <= 1.0\nmse = 11202222.2\nsamples = 2\nvalue = 201266.7"] ;
1058 -> 1072 ;
1073 [label="mse = 0.0\nsamples = 1\nvalue = 206000.0"] ;
1072 -> 1073 ;
1074 [label="mse = 0.0\nsamples = 1\nvalue = 198900.0"] ;
1072 -> 1074 ;
1075 [label="GarageArea <= 0.7\nmse = 75593520.4\nsamples = 10\nvalue = 201042.9"] ;
1057 -> 1075 ;
1076 [label="GarageArea <= 0.5\nmse = 51398680.6\nsamples = 8\nvalue = 198758.3"] ;
1075 -> 1076 ;
1077 [label="GrLivArea <= 0.4\nmse = 28900400.0\nsamples = 6\nvalue = 200910.0"] ;
1076 -> 1077 ;
1078 [label="BsmtFinSF1 <= 0.6\nmse = 2748600.0\nsamples = 3\nvalue = 205680.0"] ;
1077 -> 1078 ;
1079 [label="BsmtFullBath <= 0.2\nmse = 950625.0\nsamples = 2\nvalue = 204975.0"] ;
1078 -> 1079 ;
1080 [label="mse = 0.0\nsamples = 1\nvalue = 205950.0"] ;
1079 -> 1080 ;
1081 [label="mse = 0.0\nsamples = 1\nvalue = 204000.0"] ;
1079 -> 1081 ;
1082 [label="mse = 0.0\nsamples = 1\nvalue = 208500.0"] ;
1078 -> 1082 ;
1083 [label="TotRmsAbvGrd <= -0.0\nmse = 9546400.0\nsamples = 3\nvalue = 196140.0"] ;
1077 -> 1083 ;
1084 [label="x11_Hip <= 0.5\nmse = 151875.0\nsamples = 2\nvalue = 197675.0"] ;
1083 -> 1084 ;
1085 [label="mse = 0.0\nsamples = 1\nvalue = 197900.0"] ;
1084 -> 1085 ;
1086 [label="mse = 0.0\nsamples = 1\nvalue = 197000.0"] ;
1084 -> 1086 ;
1087 [label="mse = 0.0\nsamples = 1\nvalue = 190000.0"] ;
1083 -> 1087 ;
1088 [label="1stFlrSF <= -0.9\nmse = 25000000.0\nsamples = 2\nvalue = 188000.0"] ;
1076 -> 1088 ;
1089 [label="mse = 0.0\nsamples = 1\nvalue = 183000.0"] ;
1088 -> 1089 ;
1090 [label="mse = 0.0\nsamples = 1\nvalue = 193000.0"] ;
1088 -> 1090 ;
1091 [label="OpenPorchSF <= 0.4\nmse = 1562500.0\nsamples = 2\nvalue = 214750.0"] ;
1075 -> 1091 ;
1092 [label="mse = 0.0\nsamples = 1\nvalue = 213500.0"] ;
1091 -> 1092 ;
1093 [label="mse = 0.0\nsamples = 1\nvalue = 216000.0"] ;
1091 -> 1093 ;
1094 [label="TotRmsAbvGrd <= -0.0\nmse = 6687500.0\nsamples = 3\nvalue = 234250.0"] ;
1046 -> 1094 ;
1095 [label="mse = 0.0\nsamples = 1\nvalue = 230000.0"] ;
1094 -> 1095 ;
1096 [label="BsmtFinSF1 <= 0.4\nmse = 888888.9\nsamples = 2\nvalue = 235666.7"] ;
1094 -> 1096 ;
1097 [label="mse = 0.0\nsamples = 1\nvalue = 237000.0"] ;
1096 -> 1097 ;
1098 [label="mse = 0.0\nsamples = 1\nvalue = 235000.0"] ;
1096 -> 1098 ;
1099 [label="x15_CBlock <= 0.5\nmse = 325919848.0\nsamples = 11\nvalue = 232588.2"] ;
1043 -> 1099 ;
1100 [label="GrLivArea <= 0.1\nmse = 224202157.0\nsamples = 10\nvalue = 230217.6"] ;
1099 -> 1100 ;
1101 [label="WoodDeckSF <= -0.3\nmse = 117419564.0\nsamples = 6\nvalue = 217904.0"] ;
1100 -> 1101 ;
1102 [label="x23_Partial <= 0.5\nmse = 9517225.0\nsamples = 2\nvalue = 230085.0"] ;
1101 -> 1102 ;
1103 [label="mse = 0.0\nsamples = 1\nvalue = 227000.0"] ;
1102 -> 1103 ;
1104 [label="mse = 0.0\nsamples = 1\nvalue = 233170.0"] ;
1102 -> 1104 ;
1105 [label="x2_IR1 <= 0.5\nmse = 24491388.9\nsamples = 4\nvalue = 209783.3"] ;
1101 -> 1105 ;
1106 [label="x23_Partial <= 0.5\nmse = 226875.0\nsamples = 2\nvalue = 213175.0"] ;
1105 -> 1106 ;
1107 [label="mse = 0.0\nsamples = 1\nvalue = 214000.0"] ;
1106 -> 1107 ;
1108 [label="mse = 0.0\nsamples = 1\nvalue = 212900.0"] ;
1106 -> 1108 ;
1109 [label="YrSold <= 0.1\nmse = 4000000.0\nsamples = 2\nvalue = 203000.0"] ;
1105 -> 1109 ;
1110 [label="mse = 0.0\nsamples = 1\nvalue = 205000.0"] ;
1109 -> 1110 ;
1111 [label="mse = 0.0\nsamples = 1\nvalue = 201000.0"] ;
1109 -> 1111 ;
1112 [label="YearRemodAdd <= 1.1\nmse = 27735260.2\nsamples = 4\nvalue = 242531.2"] ;
1100 -> 1112 ;
1113 [label="WoodDeckSF <= 0.6\nmse = 8888888.9\nsamples = 3\nvalue = 238666.7"] ;
1112 -> 1113 ;
1114 [label="mse = 0.0\nsamples = 2\nvalue = 240000.0"] ;
1113 -> 1114 ;
1115 [label="mse = 0.0\nsamples = 1\nvalue = 232000.0"] ;
1113 -> 1115 ;
1116 [label="mse = 0.0\nsamples = 1\nvalue = 248328.0"] ;
1112 -> 1116 ;
1117 [label="mse = 0.0\nsamples = 1\nvalue = 280000.0"] ;
1099 -> 1117 ;
1118 [label="x13_TA <= 0.5\nmse = 1517988837.0\nsamples = 32\nvalue = 234324.8"] ;
894 -> 1118 ;
1119 [label="1stFlrSF <= -0.2\nmse = 766501655.9\nsamples = 19\nvalue = 252760.6"] ;
1118 -> 1119 ;
1120 [label="GarageArea <= 0.1\nmse = 91815555.6\nsamples = 8\nvalue = 231133.3"] ;
1119 -> 1120 ;
1121 [label="BsmtUnfSF <= 0.7\nmse = 14062500.0\nsamples = 2\nvalue = 218750.0"] ;
1120 -> 1121 ;
1122 [label="mse = 0.0\nsamples = 1\nvalue = 215000.0"] ;
1121 -> 1122 ;
1123 [label="mse = 0.0\nsamples = 1\nvalue = 222500.0"] ;
1121 -> 1123 ;
1124 [label="1stFlrSF <= -0.3\nmse = 44049586.8\nsamples = 6\nvalue = 235636.4"] ;
1120 -> 1124 ;
1125 [label="TotRmsAbvGrd <= 1.2\nmse = 18750000.0\nsamples = 4\nvalue = 239000.0"] ;
1124 -> 1125 ;
1126 [label="WoodDeckSF <= 0.4\nmse = 1673469.4\nsamples = 3\nvalue = 237428.6"] ;
1125 -> 1126 ;
1127 [label="x5_Inside <= 0.5\nmse = 250000.0\nsamples = 2\nvalue = 238500.0"] ;
1126 -> 1127 ;
1128 [label="mse = 0.0\nsamples = 1\nvalue = 238000.0"] ;
1127 -> 1128 ;
1129 [label="mse = 0.0\nsamples = 1\nvalue = 239000.0"] ;
1127 -> 1129 ;
1130 [label="mse = 0.0\nsamples = 1\nvalue = 236000.0"] ;
1126 -> 1130 ;
1131 [label="mse = 0.0\nsamples = 1\nvalue = 250000.0"] ;
1125 -> 1131 ;
1132 [label="BsmtFinSF2 <= 1.4\nmse = 888888.9\nsamples = 2\nvalue = 226666.7"] ;
1124 -> 1132 ;
1133 [label="mse = 0.0\nsamples = 1\nvalue = 226000.0"] ;
1132 -> 1133 ;
1134 [label="mse = 0.0\nsamples = 1\nvalue = 228000.0"] ;
1132 -> 1134 ;
1135 [label="BsmtUnfSF <= 0.3\nmse = 584944140.5\nsamples = 11\nvalue = 271843.5"] ;
1119 -> 1135 ;
1136 [label="x5_CulDSac <= 0.5\nmse = 315465175.0\nsamples = 6\nvalue = 288880.0"] ;
1135 -> 1136 ;
1137 [label="TotRmsAbvGrd <= 1.2\nmse = 109360000.0\nsamples = 4\nvalue = 301050.0"] ;
1136 -> 1137 ;
1138 [label="x10_1.5Fin <= 0.5\nmse = 4515625.0\nsamples = 2\nvalue = 313625.0"] ;
1137 -> 1138 ;
1139 [label="mse = 0.0\nsamples = 1\nvalue = 315750.0"] ;
1138 -> 1139 ;
1140 [label="mse = 0.0\nsamples = 1\nvalue = 311500.0"] ;
1138 -> 1140 ;
1141 [label="GrLivArea <= 1.6\nmse = 3555555.6\nsamples = 2\nvalue = 292666.7"] ;
1137 -> 1141 ;
1142 [label="mse = 0.0\nsamples = 1\nvalue = 294000.0"] ;
1141 -> 1142 ;
1143 [label="mse = 0.0\nsamples = 1\nvalue = 290000.0"] ;
1141 -> 1143 ;
1144 [label="BsmtUnfSF <= -0.6\nmse = 712022.2\nsamples = 2\nvalue = 268596.7"] ;
1136 -> 1144 ;
1145 [label="mse = 0.0\nsamples = 1\nvalue = 269790.0"] ;
1144 -> 1145 ;
1146 [label="mse = 0.0\nsamples = 1\nvalue = 268000.0"] ;
1144 -> 1146 ;
1147 [label="MoSold <= 0.1\nmse = 337162222.2\nsamples = 5\nvalue = 256700.0"] ;
1135 -> 1147 ;
1148 [label="BsmtUnfSF <= 0.6\nmse = 34218367.3\nsamples = 3\nvalue = 266114.3"] ;
1147 -> 1148 ;
1149 [label="mse = 0.0\nsamples = 1\nvalue = 253000.0"] ;
1148 -> 1149 ;
1150 [label="OverallCond <= 2.2\nmse = 6480000.0\nsamples = 2\nvalue = 268300.0"] ;
1148 -> 1150 ;
1151 [label="mse = 0.0\nsamples = 1\nvalue = 271900.0"] ;
1150 -> 1151 ;
1152 [label="mse = 0.0\nsamples = 1\nvalue = 266500.0"] ;
1150 -> 1152 ;
1153 [label="x16_GasW <= 0.5\nmse = 1562500.0\nsamples = 2\nvalue = 223750.0"] ;
1147 -> 1153 ;
1154 [label="mse = 0.0\nsamples = 1\nvalue = 222500.0"] ;
1153 -> 1154 ;
1155 [label="mse = 0.0\nsamples = 1\nvalue = 225000.0"] ;
1153 -> 1155 ;
1156 [label="MoSold <= 0.1\nmse = 1175548055.6\nsamples = 13\nvalue = 201550.0"] ;
1118 -> 1156 ;
1157 [label="x10_2.5Fin <= 0.5\nmse = 800576875.0\nsamples = 4\nvalue = 248475.0"] ;
1156 -> 1157 ;
1158 [label="1stFlrSF <= -0.1\nmse = 105402222.2\nsamples = 3\nvalue = 232966.7"] ;
1157 -> 1158 ;
1159 [label="mse = 0.0\nsamples = 1\nvalue = 219500.0"] ;
1158 -> 1159 ;
1160 [label="x17_Ex <= 0.5\nmse = 22090000.0\nsamples = 2\nvalue = 239700.0"] ;
1158 -> 1160 ;
1161 [label="mse = 0.0\nsamples = 1\nvalue = 235000.0"] ;
1160 -> 1161 ;
1162 [label="mse = 0.0\nsamples = 1\nvalue = 244400.0"] ;
1160 -> 1162 ;
1163 [label="mse = 0.0\nsamples = 1\nvalue = 295000.0"] ;
1157 -> 1163 ;
1164 [label="LotArea <= 0.1\nmse = 473801020.4\nsamples = 9\nvalue = 188142.9"] ;
1156 -> 1164 ;
1165 [label="BsmtUnfSF <= 0.4\nmse = 17833333.3\nsamples = 3\nvalue = 168500.0"] ;
1164 -> 1165 ;
1166 [label="mse = 0.0\nsamples = 1\nvalue = 159500.0"] ;
1165 -> 1166 ;
1167 [label="x9_1Fam <= 0.5\nmse = 1960000.0\nsamples = 2\nvalue = 170300.0"] ;
1165 -> 1167 ;
1168 [label="mse = 0.0\nsamples = 1\nvalue = 171000.0"] ;
1167 -> 1168 ;
1169 [label="mse = 0.0\nsamples = 1\nvalue = 167500.0"] ;
1167 -> 1169 ;
1170 [label="LotArea <= 0.9\nmse = 309359375.0\nsamples = 6\nvalue = 202875.0"] ;
1164 -> 1170 ;
1171 [label="OpenPorchSF <= -0.4\nmse = 59888888.9\nsamples = 4\nvalue = 194333.3"] ;
1170 -> 1171 ;
1172 [label="MSSubClass <= -0.4\nmse = 25000000.0\nsamples = 2\nvalue = 185000.0"] ;
1171 -> 1172 ;
1173 [label="mse = 0.0\nsamples = 1\nvalue = 180000.0"] ;
1172 -> 1173 ;
1174 [label="mse = 0.0\nsamples = 1\nvalue = 190000.0"] ;
1172 -> 1174 ;
1175 [label="x10_2Story <= 0.5\nmse = 12000000.0\nsamples = 2\nvalue = 199000.0"] ;
1171 -> 1175 ;
1176 [label="mse = 0.0\nsamples = 1\nvalue = 197000.0"] ;
1175 -> 1176 ;
1177 [label="mse = 0.0\nsamples = 1\nvalue = 205000.0"] ;
1175 -> 1177 ;
1178 [label="x6_Mod <= 0.5\nmse = 182250000.0\nsamples = 2\nvalue = 228500.0"] ;
1170 -> 1178 ;
1179 [label="mse = 0.0\nsamples = 1\nvalue = 215000.0"] ;
1178 -> 1179 ;
1180 [label="mse = 0.0\nsamples = 1\nvalue = 242000.0"] ;
1178 -> 1180 ;
1181 [label="GrLivArea <= 0.4\nmse = 2024890326.7\nsamples = 25\nvalue = 272718.9"] ;
893 -> 1181 ;
1182 [label="x11_Gable <= 0.5\nmse = 448125155.6\nsamples = 9\nvalue = 234013.3"] ;
1181 -> 1182 ;
1183 [label="YearRemodAdd <= 0.7\nmse = 294400.0\nsamples = 3\nvalue = 260040.0"] ;
1182 -> 1183 ;
1184 [label="x6_Gtl <= 0.5\nmse = 30000.0\nsamples = 2\nvalue = 260300.0"] ;
1183 -> 1184 ;
1185 [label="mse = 0.0\nsamples = 1\nvalue = 260000.0"] ;
1184 -> 1185 ;
1186 [label="mse = 0.0\nsamples = 1\nvalue = 260400.0"] ;
1184 -> 1186 ;
1187 [label="mse = 0.0\nsamples = 1\nvalue = 259000.0"] ;
1183 -> 1187 ;
1188 [label="GrLivArea <= -0.1\nmse = 164000000.0\nsamples = 6\nvalue = 221000.0"] ;
1182 -> 1188 ;
1189 [label="x6_Gtl <= 0.5\nmse = 100000000.0\nsamples = 2\nvalue = 200000.0"] ;
1188 -> 1189 ;
1190 [label="mse = 0.0\nsamples = 1\nvalue = 190000.0"] ;
1189 -> 1190 ;
1191 [label="mse = 0.0\nsamples = 1\nvalue = 210000.0"] ;
1189 -> 1191 ;
1192 [label="Fireplaces <= -0.2\nmse = 42187500.0\nsamples = 4\nvalue = 226250.0"] ;
1188 -> 1192 ;
1193 [label="YearRemodAdd <= 0.8\nmse = 6250000.0\nsamples = 2\nvalue = 232500.0"] ;
1192 -> 1193 ;
1194 [label="mse = 0.0\nsamples = 1\nvalue = 235000.0"] ;
1193 -> 1194 ;
1195 [label="mse = 0.0\nsamples = 1\nvalue = 230000.0"] ;
1193 -> 1195 ;
1196 [label="mse = 0.0\nsamples = 2\nvalue = 220000.0"] ;
1192 -> 1196 ;
1197 [label="GarageCars <= 1.0\nmse = 1606198283.9\nsamples = 16\nvalue = 294222.0"] ;
1181 -> 1197 ;
1198 [label="x17_TA <= 0.5\nmse = 738374802.6\nsamples = 11\nvalue = 269837.7"] ;
1197 -> 1198 ;
1199 [label="OpenPorchSF <= 0.0\nmse = 216791724.0\nsamples = 8\nvalue = 256324.2"] ;
1198 -> 1199 ;
1200 [label="x10_2Story <= 0.5\nmse = 10880027.2\nsamples = 4\nvalue = 243447.7"] ;
1199 -> 1200 ;
1201 [label="TotRmsAbvGrd <= 0.3\nmse = 2752095.4\nsamples = 3\nvalue = 242137.2"] ;
1200 -> 1201 ;
1202 [label="x5_Inside <= 0.5\nmse = 731243.6\nsamples = 2\nvalue = 240895.3"] ;
1201 -> 1202 ;
1203 [label="mse = 0.0\nsamples = 1\nvalue = 239686.0"] ;
1202 -> 1203 ;
1204 [label="mse = 0.0\nsamples = 1\nvalue = 241500.0"] ;
1202 -> 1204 ;
1205 [label="mse = 0.0\nsamples = 1\nvalue = 244000.0"] ;
1201 -> 1205 ;
1206 [label="mse = 0.0\nsamples = 1\nvalue = 250000.0"] ;
1200 -> 1206 ;
